<?xml version="1.0"?>
<MethodSetup Method="BDT::BDTG">
  <GeneralInfo>
    <Info name="TMVA Release" value="4.2.1 [262657]"/>
    <Info name="ROOT Release" value="6.22/02 [398850]"/>
    <Info name="Creator" value="cdean"/>
    <Info name="Date" value="Tue Apr 20 16:50:37 2021"/>
    <Info name="Host" value="Linux cvmfswrite02.sdcc.bnl.gov 3.10.0-957.12.2.el7.x86_64 #1 SMP Tue May 14 15:23:27 CDT 2019 x86_64 x86_64 x86_64 GNU/Linux"/>
    <Info name="Dir" value="/gpfs/mnt/gpfs02/sphenix/user/cdean/scripts/HF_trigger_ML/TMVA/Odd/wCalo"/>
    <Info name="Training events" value="22240"/>
    <Info name="TrainingTime" value="9.46727109e+00"/>
    <Info name="AnalysisType" value="Classification"/>
  </GeneralInfo>
  <Options>
    <Option name="V" modified="Yes">False</Option>
    <Option name="VerbosityLevel" modified="No">Default</Option>
    <Option name="VarTransform" modified="No">None</Option>
    <Option name="H" modified="Yes">False</Option>
    <Option name="CreateMVAPdfs" modified="No">False</Option>
    <Option name="IgnoreNegWeightsInTraining" modified="No">False</Option>
    <Option name="NTrees" modified="Yes">1000</Option>
    <Option name="MaxDepth" modified="Yes">2</Option>
    <Option name="MinNodeSize" modified="Yes">2.5%</Option>
    <Option name="nCuts" modified="Yes">20</Option>
    <Option name="BoostType" modified="Yes">Grad</Option>
    <Option name="AdaBoostR2Loss" modified="No">quadratic</Option>
    <Option name="UseBaggedBoost" modified="Yes">True</Option>
    <Option name="Shrinkage" modified="Yes">1.000000e-01</Option>
    <Option name="AdaBoostBeta" modified="No">5.000000e-01</Option>
    <Option name="UseRandomisedTrees" modified="No">False</Option>
    <Option name="UseNvars" modified="No">3</Option>
    <Option name="UsePoissonNvars" modified="No">True</Option>
    <Option name="BaggedSampleFraction" modified="Yes">5.000000e-01</Option>
    <Option name="UseYesNoLeaf" modified="No">True</Option>
    <Option name="NegWeightTreatment" modified="No">pray</Option>
    <Option name="Css" modified="No">1.000000e+00</Option>
    <Option name="Cts_sb" modified="No">1.000000e+00</Option>
    <Option name="Ctb_ss" modified="No">1.000000e+00</Option>
    <Option name="Cbb" modified="No">1.000000e+00</Option>
    <Option name="NodePurityLimit" modified="No">5.000000e-01</Option>
    <Option name="SeparationType" modified="No">giniindex</Option>
    <Option name="RegressionLossFunctionBDTG" modified="No">huber</Option>
    <Option name="HuberQuantile" modified="No">7.000000e-01</Option>
    <Option name="DoBoostMonitor" modified="No">False</Option>
    <Option name="UseFisherCuts" modified="No">False</Option>
    <Option name="MinLinCorrForFisher" modified="No">8.000000e-01</Option>
    <Option name="UseExclusiveVars" modified="No">False</Option>
    <Option name="DoPreselection" modified="No">False</Option>
    <Option name="SigToBkgFraction" modified="No">1.000000e+00</Option>
    <Option name="PruneMethod" modified="No">nopruning</Option>
    <Option name="PruneStrength" modified="No">0.000000e+00</Option>
    <Option name="PruningValFraction" modified="No">5.000000e-01</Option>
    <Option name="SkipNormalization" modified="No">False</Option>
    <Option name="nEventsMin" modified="No">0</Option>
    <Option name="UseBaggedGrad" modified="No">False</Option>
    <Option name="GradBaggingFraction" modified="No">5.000000e-01</Option>
    <Option name="UseNTrainEvents" modified="No">0</Option>
    <Option name="NNodesMax" modified="No">0</Option>
  </Options>
  <Variables NVar="7">
    <Variable VarIndex="0" Expression="min(track_1_IP,track_2_IP)" Label="minTrackDCA_3D" Title="track-vertex 3D DCA, min" Unit="units" Internal="minTrackDCA_3D" Type="F" Min="1.00307306e-03" Max="4.82119274e+00"/>
    <Variable VarIndex="1" Expression="min(abs(track_1_IP_xy),abs(track_2_IP_xy))" Label="minTrackDCA_2D" Title="track-vertex 2D DCA, min" Unit="units" Internal="minTrackDCA_2D" Type="F" Min="1.74363377e-05" Max="4.26682329e+00"/>
    <Variable VarIndex="2" Expression="max(track_1_IP,track_2_IP)" Label="maxTrackDCA_3D" Title="track-vertex 3D DCA, max" Unit="units" Internal="maxTrackDCA_3D" Type="F" Min="3.83873377e-03" Max="4.99581957e+00"/>
    <Variable VarIndex="3" Expression="max(abs(track_1_IP_xy),abs(track_2_IP_xy))" Label="maxTrackDCA_2D" Title="track-vertex 2D DCA, max" Unit="units" Internal="maxTrackDCA_2D" Type="F" Min="9.33057163e-05" Max="4.89962578e+00"/>
    <Variable VarIndex="4" Expression="max(track_1_EMCAL_energy_cluster,track_2_EMCAL_energy_cluster)" Label="maxTrackEMCALcluster" Title="track EMCAL cluster, max" Unit="units" Internal="maxTrackEMCALcluster" Type="F" Min="3.03516388e-02" Max="5.75867653e+00"/>
    <Variable VarIndex="5" Expression="track_1_track_2_DCA" Label="track_1_track_2_DCA" Title="track-track 3D DCA" Unit="units" Internal="track_1_track_2_DCA" Type="F" Min="1.57269469e-07" Max="4.99997623e-02"/>
    <Variable VarIndex="6" Expression="INTT_meanHits" Label="INTT_meanHits" Title="INTT avg. hits" Unit="units" Internal="INTT_meanHits" Type="F" Min="0.00000000e+00" Max="9.30000000e+01"/>
  </Variables>
  <Spectators NSpec="0"/>
  <Classes NClass="2">
    <Class Name="Signal" Index="0"/>
    <Class Name="Background" Index="1"/>
  </Classes>
  <Transformations NTransformations="0"/>
  <MVAPdfs/>
  <Weights NTrees="1000" AnalysisType="1">
    <BinaryTree type="DecisionTree" boostWeight="1.0000000000000000e+00" itree="0">
      <Node pos="s" depth="0" NCoef="0" IVar="2" Cut="2.4155209958553314e-01" cType="1" res="5.3164856508374214e-03" rms="4.9997174739837646e-01" purity="5.0531649589538574e-01" nType="0">
        <Node pos="l" depth="1" NCoef="0" IVar="2" Cut="1.2830504775047302e-01" cType="1" res="-2.7795994281768799e-01" rms="4.1561794281005859e-01" purity="2.2204005718231201e-01" nType="0">
          <Node pos="l" depth="2" NCoef="0" IVar="-1" Cut="0.0000000000000000e+00" cType="1" res="-8.6891151964664459e-02" rms="2.4748370051383972e-01" purity="6.5544225275516510e-02" nType="-99"/>
          <Node pos="r" depth="2" NCoef="0" IVar="-1" Cut="0.0000000000000000e+00" cType="1" res="-3.3860158175230026e-02" rms="4.7046491503715515e-01" purity="3.3069920539855957e-01" nType="-99"/>
        </Node>
        <Node pos="r" depth="1" NCoef="0" IVar="4" Cut="5.4267883300781250e-01" cType="1" res="1.4319114387035370e-01" rms="4.7905772924423218e-01" purity="6.4319115877151489e-01" nType="0">
          <Node pos="l" depth="2" NCoef="0" IVar="-1" Cut="0.0000000000000000e+00" cType="1" res="8.2305688410997391e-03" rms="4.9830356240272522e-01" purity="5.4115283489227295e-01" nType="-99"/>
          <Node pos="r" depth="2" NCoef="0" IVar="-1" Cut="0.0000000000000000e+00" cType="1" res="5.5703599005937576e-02" rms="4.1524416208267212e-01" purity="7.7851796150207520e-01" nType="-99"/>
        </Node>
      </Node>
    </BinaryTree>
    <BinaryTree type="DecisionTree" boostWeight="1.0000000000000000e+00" itree="1">
      <Node pos="s" depth="0" NCoef="0" IVar="3" Cut="2.1285833418369293e-01" cType="1" res="-6.2779248692095280e-03" rms="4.9012061953544617e-01" purity="4.9353846907615662e-01" nType="0">
        <Node pos="l" depth="1" NCoef="0" IVar="3" Cut="1.4184579253196716e-01" cType="1" res="-2.1299554407596588e-01" rms="4.3712520599365234e-01" purity="2.6990640163421631e-01" nType="0">
          <Node pos="l" depth="2" NCoef="0" IVar="-1" Cut="0.0000000000000000e+00" cType="1" res="-5.6754689663648605e-02" rms="3.9021962881088257e-01" purity="1.9407179951667786e-01" nType="-99"/>
          <Node pos="r" depth="2" NCoef="0" IVar="-1" Cut="0.0000000000000000e+00" cType="1" res="-1.4210944995284081e-02" rms="4.9013134837150574e-01" purity="4.2468458414077759e-01" nType="-99"/>
        </Node>
        <Node pos="r" depth="1" NCoef="0" IVar="4" Cut="5.8398967981338501e-01" cType="1" res="1.5730293095111847e-01" rms="4.6747195720672607e-01" purity="6.7050409317016602e-01" nType="0">
          <Node pos="l" depth="2" NCoef="0" IVar="-1" Cut="0.0000000000000000e+00" cType="1" res="1.5902753919363022e-02" rms="4.9260607361793518e-01" purity="5.8411175012588501e-01" nType="-99"/>
          <Node pos="r" depth="2" NCoef="0" IVar="-1" Cut="0.0000000000000000e+00" cType="1" res="5.6099351495504379e-02" rms="3.9509889483451843e-01" purity="8.0634021759033203e-01" nType="-99"/>
        </Node>
      </Node>
    </BinaryTree>
    <BinaryTree type="DecisionTree" boostWeight="1.0000000000000000e+00" itree="2">
      <Node pos="s" depth="0" NCoef="0" IVar="2" Cut="2.4219344556331635e-01" cType="1" res="1.7548471689224243e-02" rms="4.8217460513114929e-01" purity="5.1667439937591553e-01" nType="0">
        <Node pos="l" depth="1" NCoef="0" IVar="4" Cut="5.8388322591781616e-01" cType="1" res="-2.1276795864105225e-01" rms="4.2200964689254761e-01" purity="2.3828929662704468e-01" nType="0">
          <Node pos="l" depth="2" NCoef="0" IVar="-1" Cut="0.0000000000000000e+00" cType="1" res="-5.3134009242057800e-02" rms="3.8625264167785645e-01" purity="1.8795655667781830e-01" nType="-99"/>
          <Node pos="r" depth="2" NCoef="0" IVar="-1" Cut="0.0000000000000000e+00" cType="1" res="-1.5066226013004780e-02" rms="4.8188990354537964e-01" purity="3.7785571813583374e-01" nType="-99"/>
        </Node>
        <Node pos="r" depth="1" NCoef="0" IVar="4" Cut="6.7230778932571411e-01" cType="1" res="1.3380660116672516e-01" rms="4.6867915987968445e-01" purity="6.5719640254974365e-01" nType="0">
          <Node pos="l" depth="2" NCoef="0" IVar="-1" Cut="0.0000000000000000e+00" cType="1" res="1.4501103200018406e-02" rms="4.9081248044967651e-01" purity="5.8358079195022583e-01" nType="-99"/>
          <Node pos="r" depth="2" NCoef="0" IVar="-1" Cut="0.0000000000000000e+00" cType="1" res="5.2850853651762009e-02" rms="3.8910198211669922e-01" purity="8.1015282869338989e-01" nType="-99"/>
        </Node>
      </Node>
    </BinaryTree>
    <BinaryTree type="DecisionTree" boostWeight="1.0000000000000000e+00" itree="3">
      <Node pos="s" depth="0" NCoef="0" IVar="3" Cut="2.3495733737945557e-01" cType="1" res="9.0915588662028313e-03" rms="4.7652477025985718e-01" purity="5.0982320308685303e-01" nType="0">
        <Node pos="l" depth="1" NCoef="0" IVar="3" Cut="1.5704937279224396e-01" cType="1" res="-1.2684981524944305e-01" rms="4.5586034655570984e-01" purity="3.2860878109931946e-01" nType="0">
          <Node pos="l" depth="2" NCoef="0" IVar="-1" Cut="0.0000000000000000e+00" cType="1" res="-4.1381366550922394e-02" rms="4.1636213660240173e-01" purity="2.3525805771350861e-01" nType="-99"/>
          <Node pos="r" depth="2" NCoef="0" IVar="-1" Cut="0.0000000000000000e+00" cType="1" res="5.4519292898476124e-03" rms="4.9242523312568665e-01" purity="5.1836204528808594e-01" nType="-99"/>
        </Node>
        <Node pos="r" depth="1" NCoef="0" IVar="4" Cut="2.8673624992370605e-01" cType="1" res="1.3777086138725281e-01" rms="4.5963308215141296e-01" purity="6.8135702610015869e-01" nType="0">
          <Node pos="l" depth="2" NCoef="0" IVar="-1" Cut="0.0000000000000000e+00" cType="1" res="4.8986843466991559e-05" rms="4.9945530295372009e-01" purity="5.1938116550445557e-01" nType="-99"/>
          <Node pos="r" depth="2" NCoef="0" IVar="-1" Cut="0.0000000000000000e+00" cType="1" res="3.8506172597408295e-02" rms="4.3241915106773376e-01" purity="7.4255561828613281e-01" nType="-99"/>
        </Node>
      </Node>
    </BinaryTree>
    <BinaryTree type="DecisionTree" boostWeight="1.0000000000000000e+00" itree="4">
      <Node pos="s" depth="0" NCoef="0" IVar="2" Cut="2.4101780354976654e-01" cType="1" res="-8.0150074791163206e-04" rms="4.6959322690963745e-01" purity="5.0246918201446533e-01" nType="0">
        <Node pos="l" depth="1" NCoef="0" IVar="4" Cut="5.7485818862915039e-01" cType="1" res="-1.9717395305633545e-01" rms="4.0281155705451965e-01" purity="2.1894234418869019e-01" nType="0">
          <Node pos="l" depth="2" NCoef="0" IVar="-1" Cut="0.0000000000000000e+00" cType="1" res="-5.3729802370071411e-02" rms="3.5102334618568420e-01" purity="1.5025237202644348e-01" nType="-99"/>
          <Node pos="r" depth="2" NCoef="0" IVar="-1" Cut="0.0000000000000000e+00" cType="1" res="-6.4251041039824486e-03" rms="4.7890323400497437e-01" purity="4.0333053469657898e-01" nType="-99"/>
        </Node>
        <Node pos="r" depth="1" NCoef="0" IVar="4" Cut="2.4473288655281067e-01" cType="1" res="9.3623250722885132e-02" rms="4.7018474340438843e-01" purity="6.3880169391632080e-01" nType="0">
          <Node pos="l" depth="2" NCoef="0" IVar="-1" Cut="0.0000000000000000e+00" cType="1" res="-1.0910689830780029e-02" rms="4.9447211623191833e-01" purity="4.5714789628982544e-01" nType="-99"/>
          <Node pos="r" depth="2" NCoef="0" IVar="-1" Cut="0.0000000000000000e+00" cType="1" res="2.7513764798641205e-02" rms="4.5461124181747437e-01" purity="6.8961477279663086e-01" nType="-99"/>
        </Node>
      </Node>
    </BinaryTree>
    <BinaryTree type="DecisionTree" boostWeight="1.0000000000000000e+00" itree="5">
      <Node pos="s" depth="0" NCoef="0" IVar="3" Cut="2.3340438306331635e-01" cType="1" res="-1.9329603528603911e-03" rms="4.6525102853775024e-01" purity="4.9902975559234619e-01" nType="0">
        <Node pos="l" depth="1" NCoef="0" IVar="4" Cut="5.7619392871856689e-01" cType="1" res="-1.4081865549087524e-01" rms="4.3508115410804749e-01" purity="2.8788220882415771e-01" nType="0">
          <Node pos="l" depth="2" NCoef="0" IVar="-1" Cut="0.0000000000000000e+00" cType="1" res="-4.1609853506088257e-02" rms="3.9704772830009460e-01" purity="2.1497686207294464e-01" nType="-99"/>
          <Node pos="r" depth="2" NCoef="0" IVar="-1" Cut="0.0000000000000000e+00" cType="1" res="1.5611898561473936e-04" rms="4.8752704262733459e-01" purity="4.6457636356353760e-01" nType="-99"/>
        </Node>
        <Node pos="r" depth="1" NCoef="0" IVar="4" Cut="4.5853623747825623e-01" cType="1" res="1.2101370841264725e-01" rms="4.5641288161277771e-01" purity="6.8594527244567871e-01" nType="0">
          <Node pos="l" depth="2" NCoef="0" IVar="-1" Cut="0.0000000000000000e+00" cType="1" res="9.1298166662454605e-03" rms="4.9420666694641113e-01" purity="5.7615441083908081e-01" nType="-99"/>
          <Node pos="r" depth="2" NCoef="0" IVar="-1" Cut="0.0000000000000000e+00" cType="1" res="4.0427867323160172e-02" rms="4.0350833535194397e-01" purity="7.9186707735061646e-01" nType="-99"/>
        </Node>
      </Node>
    </BinaryTree>
    <BinaryTree type="DecisionTree" boostWeight="1.0000000000000000e+00" itree="6">
      <Node pos="s" depth="0" NCoef="0" IVar="3" Cut="2.2452294826507568e-01" cType="1" res="8.0523360520601273e-03" rms="4.6379178762435913e-01" purity="5.0702142715454102e-01" nType="0">
        <Node pos="l" depth="1" NCoef="0" IVar="4" Cut="8.4868377447128296e-01" cType="1" res="-9.4394728541374207e-02" rms="4.4584035873413086e-01" purity="3.1937852501869202e-01" nType="0">
          <Node pos="l" depth="2" NCoef="0" IVar="-1" Cut="0.0000000000000000e+00" cType="1" res="-3.1165594235062599e-02" rms="4.2087870836257935e-01" purity="2.5323885679244995e-01" nType="-99"/>
          <Node pos="r" depth="2" NCoef="0" IVar="-1" Cut="0.0000000000000000e+00" cType="1" res="2.8678661212325096e-02" rms="4.7605037689208984e-01" purity="6.1222529411315918e-01" nType="-99"/>
        </Node>
        <Node pos="r" depth="1" NCoef="0" IVar="4" Cut="9.7955030202865601e-01" cType="1" res="9.8938621580600739e-02" rms="4.6045407652854919e-01" purity="6.7348945140838623e-01" nType="0">
          <Node pos="l" depth="2" NCoef="0" IVar="-1" Cut="0.0000000000000000e+00" cType="1" res="1.4974761754274368e-02" rms="4.7587877511978149e-01" purity="6.3634467124938965e-01" nType="-99"/>
          <Node pos="r" depth="2" NCoef="0" IVar="-1" Cut="0.0000000000000000e+00" cType="1" res="4.9146421253681183e-02" rms="3.4537383913993835e-01" purity="8.6007606983184814e-01" nType="-99"/>
        </Node>
      </Node>
    </BinaryTree>
    <BinaryTree type="DecisionTree" boostWeight="1.0000000000000000e+00" itree="7">
      <Node pos="s" depth="0" NCoef="0" IVar="3" Cut="2.3527272045612335e-01" cType="1" res="4.9929565284401178e-04" rms="4.6279013156890869e-01" purity="4.9806737899780273e-01" nType="0">
        <Node pos="l" depth="1" NCoef="0" IVar="4" Cut="4.2889830470085144e-01" cType="1" res="-8.7534368038177490e-02" rms="4.4595888257026672e-01" purity="3.1759914755821228e-01" nType="0">
          <Node pos="l" depth="2" NCoef="0" IVar="-1" Cut="0.0000000000000000e+00" cType="1" res="-3.3184472471475601e-02" rms="4.0638411045074463e-01" purity="2.2428162395954132e-01" nType="-99"/>
          <Node pos="r" depth="2" NCoef="0" IVar="-1" Cut="0.0000000000000000e+00" cType="1" res="5.2896217675879598e-04" rms="4.8006358742713928e-01" purity="4.4399690628051758e-01" nType="-99"/>
        </Node>
        <Node pos="r" depth="1" NCoef="0" IVar="4" Cut="5.4277491569519043e-01" cType="1" res="8.3359070122241974e-02" rms="4.6304529905319214e-01" purity="6.6792917251586914e-01" nType="0">
          <Node pos="l" depth="2" NCoef="0" IVar="-1" Cut="0.0000000000000000e+00" cType="1" res="8.7452912703156471e-03" rms="4.9006959795951843e-01" purity="5.9173464775085449e-01" nType="-99"/>
          <Node pos="r" depth="2" NCoef="0" IVar="-1" Cut="0.0000000000000000e+00" cType="1" res="3.1008066609501839e-02" rms="4.1249534487724304e-01" purity="7.8123992681503296e-01" nType="-99"/>
        </Node>
      </Node>
    </BinaryTree>
    <BinaryTree type="DecisionTree" boostWeight="1.0000000000000000e+00" itree="8">
      <Node pos="s" depth="0" NCoef="0" IVar="2" Cut="2.4121485650539398e-01" cType="1" res="-9.5228059217333794e-03" rms="4.5357105135917664e-01" purity="4.9265456199645996e-01" nType="0">
        <Node pos="l" depth="1" NCoef="0" IVar="3" Cut="1.5904533863067627e-01" cType="1" res="-1.4758107066154480e-01" rms="3.9411455392837524e-01" purity="2.1605299413204193e-01" nType="0">
          <Node pos="l" depth="2" NCoef="0" IVar="-1" Cut="0.0000000000000000e+00" cType="1" res="-4.4800408184528351e-02" rms="3.4485837817192078e-01" purity="1.4587029814720154e-01" nType="-99"/>
          <Node pos="r" depth="2" NCoef="0" IVar="-1" Cut="0.0000000000000000e+00" cType="1" res="4.8354375176131725e-03" rms="4.8154404759407043e-01" purity="4.3775603175163269e-01" nType="-99"/>
        </Node>
        <Node pos="r" depth="1" NCoef="0" IVar="4" Cut="5.4267883300781250e-01" cType="1" res="5.8407299220561981e-02" rms="4.6533092856407166e-01" purity="6.2875348329544067e-01" nType="0">
          <Node pos="l" depth="2" NCoef="0" IVar="-1" Cut="0.0000000000000000e+00" cType="1" res="-2.5899882894009352e-04" rms="4.9136269092559814e-01" purity="5.2568894624710083e-01" nType="-99"/>
          <Node pos="r" depth="2" NCoef="0" IVar="-1" Cut="0.0000000000000000e+00" cType="1" res="3.0741220340132713e-02" rms="4.1217446327209473e-01" purity="7.7253365516662598e-01" nType="-99"/>
        </Node>
      </Node>
    </BinaryTree>
    <BinaryTree type="DecisionTree" boostWeight="1.0000000000000000e+00" itree="9">
      <Node pos="s" depth="0" NCoef="0" IVar="4" Cut="4.5806980133056641e-01" cType="1" res="-1.2517869472503662e-03" rms="4.5487976074218750e-01" purity="4.9774208664894104e-01" nType="0">
        <Node pos="l" depth="1" NCoef="0" IVar="2" Cut="2.4545915424823761e-01" cType="1" res="-7.1315817534923553e-02" rms="4.5141211152076721e-01" purity="3.7521237134933472e-01" nType="0">
          <Node pos="l" depth="2" NCoef="0" IVar="-1" Cut="0.0000000000000000e+00" cType="1" res="-4.0540914982557297e-02" rms="3.4749653935432434e-01" purity="1.4741888642311096e-01" nType="-99"/>
          <Node pos="r" depth="2" NCoef="0" IVar="-1" Cut="0.0000000000000000e+00" cType="1" res="-1.3147259596735239e-03" rms="4.9400091171264648e-01" purity="5.1588666439056396e-01" nType="-99"/>
        </Node>
        <Node pos="r" depth="1" NCoef="0" IVar="2" Cut="2.3621845245361328e-01" cType="1" res="8.0622702836990356e-02" rms="4.4513836503028870e-01" purity="6.4092630147933960e-01" nType="0">
          <Node pos="l" depth="2" NCoef="0" IVar="-1" Cut="0.0000000000000000e+00" cType="1" res="-1.4617406995967031e-03" rms="4.7182705998420715e-01" purity="3.8791462779045105e-01" nType="-99"/>
          <Node pos="r" depth="2" NCoef="0" IVar="-1" Cut="0.0000000000000000e+00" cType="1" res="2.5440214201807976e-02" rms="4.2842793464660645e-01" purity="7.4555295705795288e-01" nType="-99"/>
        </Node>
      </Node>
    </BinaryTree>
    <BinaryTree type="DecisionTree" boostWeight="1.0000000000000000e+00" itree="10">
      <Node pos="s" depth="0" NCoef="0" IVar="2" Cut="2.4177670478820801e-01" cType="1" res="1.1354272253811359e-02" rms="4.5173749327659607e-01" purity="5.1294225454330444e-01" nType="0">
        <Node pos="l" depth="1" NCoef="0" IVar="2" Cut="1.2884689867496490e-01" cType="1" res="-8.9871041476726532e-02" rms="4.1565793752670288e-01" purity="2.4699571728706360e-01" nType="0">
          <Node pos="l" depth="2" NCoef="0" IVar="-1" Cut="0.0000000000000000e+00" cType="1" res="-4.9257997423410416e-02" rms="2.8914824128150940e-01" purity="9.6506990492343903e-02" nType="-99"/>
          <Node pos="r" depth="2" NCoef="0" IVar="-1" Cut="0.0000000000000000e+00" cType="1" res="-2.5628069415688515e-03" rms="4.6640291810035706e-01" purity="3.4823802113533020e-01" nType="-99"/>
        </Node>
        <Node pos="r" depth="1" NCoef="0" IVar="4" Cut="7.9871243238449097e-01" cType="1" res="6.1469178646802902e-02" rms="4.6040859818458557e-01" purity="6.4460778236389160e-01" nType="0">
          <Node pos="l" depth="2" NCoef="0" IVar="-1" Cut="0.0000000000000000e+00" cType="1" res="7.0125944912433624e-03" rms="4.8103612661361694e-01" purity="5.8781015872955322e-01" nType="-99"/>
          <Node pos="r" depth="2" NCoef="0" IVar="-1" Cut="0.0000000000000000e+00" cType="1" res="3.3100757747888565e-02" rms="3.7930682301521301e-01" purity="8.1672859191894531e-01" nType="-99"/>
        </Node>
      </Node>
    </BinaryTree>
    <BinaryTree type="DecisionTree" boostWeight="1.0000000000000000e+00" itree="11">
      <Node pos="s" depth="0" NCoef="0" IVar="4" Cut="5.7619392871856689e-01" cType="1" res="-4.9733971245586872e-03" rms="4.5057389140129089e-01" purity="4.9051833152770996e-01" nType="0">
        <Node pos="l" depth="1" NCoef="0" IVar="4" Cut="2.3848567903041840e-01" cType="1" res="-5.0620567053556442e-02" rms="4.5539852976799011e-01" purity="3.8970890641212463e-01" nType="0">
          <Node pos="l" depth="2" NCoef="0" IVar="-1" Cut="0.0000000000000000e+00" cType="1" res="-3.0448723584413528e-02" rms="4.1859948635101318e-01" purity="2.7403628826141357e-01" nType="-99"/>
          <Node pos="r" depth="2" NCoef="0" IVar="-1" Cut="0.0000000000000000e+00" cType="1" res="-2.1821314294356853e-04" rms="4.6739506721496582e-01" purity="4.5424240827560425e-01" nType="-99"/>
        </Node>
        <Node pos="r" depth="1" NCoef="0" IVar="3" Cut="2.0156145095825195e-01" cType="1" res="7.9722784459590912e-02" rms="4.2879724502563477e-01" purity="6.7756539583206177e-01" nType="0">
          <Node pos="l" depth="2" NCoef="0" IVar="-1" Cut="0.0000000000000000e+00" cType="1" res="-3.7331460043787956e-03" rms="4.7956457734107971e-01" purity="4.2572155594825745e-01" nType="-99"/>
          <Node pos="r" depth="2" NCoef="0" IVar="-1" Cut="0.0000000000000000e+00" cType="1" res="3.0372016131877899e-02" rms="3.8968309760093689e-01" purity="8.1048429012298584e-01" nType="-99"/>
        </Node>
      </Node>
    </BinaryTree>
    <BinaryTree type="DecisionTree" boostWeight="1.0000000000000000e+00" itree="12">
      <Node pos="s" depth="0" NCoef="0" IVar="2" Cut="2.4143452942371368e-01" cType="1" res="6.0033970512449741e-03" rms="4.4831842184066772e-01" purity="5.0557577610015869e-01" nType="0">
        <Node pos="l" depth="1" NCoef="0" IVar="4" Cut="8.4738385677337646e-01" cType="1" res="-8.3414070308208466e-02" rms="4.0670096874237061e-01" purity="2.4012365937232971e-01" nType="0">
          <Node pos="l" depth="2" NCoef="0" IVar="-1" Cut="0.0000000000000000e+00" cType="1" res="-2.8288882225751877e-02" rms="3.7911340594291687e-01" purity="1.8876224756240845e-01" nType="-99"/>
          <Node pos="r" depth="2" NCoef="0" IVar="-1" Cut="0.0000000000000000e+00" cType="1" res="2.5845820084214211e-02" rms="4.9202316999435425e-01" purity="5.4150176048278809e-01" nType="-99"/>
        </Node>
        <Node pos="r" depth="1" NCoef="0" IVar="4" Cut="2.8673624992370605e-01" cType="1" res="5.0350856035947800e-02" rms="4.6119993925094604e-01" purity="6.3722926378250122e-01" nType="0">
          <Node pos="l" depth="2" NCoef="0" IVar="-1" Cut="0.0000000000000000e+00" cType="1" res="-3.6463350988924503e-03" rms="4.9205014109611511e-01" purity="4.8512575030326843e-01" nType="-99"/>
          <Node pos="r" depth="2" NCoef="0" IVar="-1" Cut="0.0000000000000000e+00" cType="1" res="1.7804762348532677e-02" rms="4.4325673580169678e-01" purity="7.0543974637985229e-01" nType="-99"/>
        </Node>
      </Node>
    </BinaryTree>
    <BinaryTree type="DecisionTree" boostWeight="1.0000000000000000e+00" itree="13">
      <Node pos="s" depth="0" NCoef="0" IVar="2" Cut="2.4253976345062256e-01" cType="1" res="-2.9813594301231205e-04" rms="4.4901379942893982e-01" purity="4.9763342738151550e-01" nType="0">
        <Node pos="l" depth="1" NCoef="0" IVar="3" Cut="6.9284893572330475e-02" cType="1" res="-8.4258593618869781e-02" rms="4.0269070863723755e-01" purity="2.3316566646099091e-01" nType="0">
          <Node pos="l" depth="2" NCoef="0" IVar="-1" Cut="0.0000000000000000e+00" cType="1" res="-5.5968154221773148e-02" rms="2.3270550370216370e-01" purity="5.6542959064245224e-02" nType="-99"/>
          <Node pos="r" depth="2" NCoef="0" IVar="-1" Cut="0.0000000000000000e+00" cType="1" res="-8.6708702147006989e-03" rms="4.3616837263107300e-01" purity="2.9322820901870728e-01" nType="-99"/>
        </Node>
        <Node pos="r" depth="1" NCoef="0" IVar="0" Cut="4.4665139913558960e-01" cType="1" res="4.2168587446212769e-02" rms="4.6497294306755066e-01" purity="6.3139975070953369e-01" nType="0">
          <Node pos="l" depth="2" NCoef="0" IVar="-1" Cut="0.0000000000000000e+00" cType="1" res="1.4537600800395012e-02" rms="4.5534157752990723e-01" purity="6.5467971563339233e-01" nType="-99"/>
          <Node pos="r" depth="2" NCoef="0" IVar="-1" Cut="0.0000000000000000e+00" cType="1" res="-4.3240981176495552e-03" rms="4.8204571008682251e-01" purity="5.7454931735992432e-01" nType="-99"/>
        </Node>
      </Node>
    </BinaryTree>
    <BinaryTree type="DecisionTree" boostWeight="1.0000000000000000e+00" itree="14">
      <Node pos="s" depth="0" NCoef="0" IVar="3" Cut="2.3340438306331635e-01" cType="1" res="1.1040186509490013e-02" rms="4.4779416918754578e-01" purity="5.0769668817520142e-01" nType="0">
        <Node pos="l" depth="1" NCoef="0" IVar="4" Cut="2.2992767393589020e-01" cType="1" res="-4.0370199829339981e-02" rms="4.3629813194274902e-01" purity="3.2479950785636902e-01" nType="0">
          <Node pos="l" depth="2" NCoef="0" IVar="-1" Cut="0.0000000000000000e+00" cType="1" res="-4.1174788028001785e-02" rms="3.2815498113632202e-01" purity="1.3130304217338562e-01" nType="-99"/>
          <Node pos="r" depth="2" NCoef="0" IVar="-1" Cut="0.0000000000000000e+00" cType="1" res="4.0396026452071965e-04" rms="4.5897912979125977e-01" purity="3.8902771472930908e-01" nType="-99"/>
        </Node>
        <Node pos="r" depth="1" NCoef="0" IVar="5" Cut="2.3817582987248898e-03" cType="1" res="6.0088485479354858e-02" rms="4.5308816432952881e-01" purity="6.8219047784805298e-01" nType="0">
          <Node pos="l" depth="2" NCoef="0" IVar="-1" Cut="0.0000000000000000e+00" cType="1" res="2.7575653046369553e-02" rms="4.1446542739868164e-01" purity="7.5485682487487793e-01" nType="-99"/>
          <Node pos="r" depth="2" NCoef="0" IVar="-1" Cut="0.0000000000000000e+00" cType="1" res="9.5624439418315887e-03" rms="4.6084284782409668e-01" purity="6.6394901275634766e-01" nType="-99"/>
        </Node>
      </Node>
    </BinaryTree>
    <BinaryTree type="DecisionTree" boostWeight="1.0000000000000000e+00" itree="15">
      <Node pos="s" depth="0" NCoef="0" IVar="3" Cut="2.3495733737945557e-01" cType="1" res="-8.2063786685466766e-03" rms="4.4303596019744873e-01" purity="4.9302136898040771e-01" nType="0">
        <Node pos="l" depth="1" NCoef="0" IVar="3" Cut="1.2380331009626389e-01" cType="1" res="-6.4383216202259064e-02" rms="4.2357110977172852e-01" purity="2.9873466491699219e-01" nType="0">
          <Node pos="l" depth="2" NCoef="0" IVar="-1" Cut="0.0000000000000000e+00" cType="1" res="-3.0684288591146469e-02" rms="3.6816588044166565e-01" purity="1.8495671451091766e-01" nType="-99"/>
          <Node pos="r" depth="2" NCoef="0" IVar="-1" Cut="0.0000000000000000e+00" cType="1" res="3.3311851439066231e-04" rms="4.6750292181968689e-01" purity="4.2194530367851257e-01" nType="-99"/>
        </Node>
        <Node pos="r" depth="1" NCoef="0" IVar="4" Cut="1.7583939433097839e-01" cType="1" res="4.4421680271625519e-02" rms="4.5426586270332336e-01" purity="6.7503470182418823e-01" nType="0">
          <Node pos="l" depth="2" NCoef="0" IVar="-1" Cut="0.0000000000000000e+00" cType="1" res="-2.9801888391375542e-02" rms="4.8456797003746033e-01" purity="3.7610462307929993e-01" nType="-99"/>
          <Node pos="r" depth="2" NCoef="0" IVar="-1" Cut="0.0000000000000000e+00" cType="1" res="1.4120984822511673e-02" rms="4.4670534133911133e-01" purity="7.0439028739929199e-01" nType="-99"/>
        </Node>
      </Node>
    </BinaryTree>
    <BinaryTree type="DecisionTree" boostWeight="1.0000000000000000e+00" itree="16">
      <Node pos="s" depth="0" NCoef="0" IVar="3" Cut="4.4895258545875549e-01" cType="1" res="1.3354721479117870e-02" rms="4.4163563847541809e-01" purity="5.1792132854461670e-01" nType="0">
        <Node pos="l" depth="1" NCoef="0" IVar="3" Cut="1.7074014246463776e-01" cType="1" res="-2.1234044805169106e-02" rms="4.4108724594116211e-01" purity="4.2772501707077026e-01" nType="0">
          <Node pos="l" depth="2" NCoef="0" IVar="-1" Cut="0.0000000000000000e+00" cType="1" res="-1.6633540391921997e-02" rms="4.0880408883094788e-01" purity="2.5215065479278564e-01" nType="-99"/>
          <Node pos="r" depth="2" NCoef="0" IVar="-1" Cut="0.0000000000000000e+00" cType="1" res="5.8540906757116318e-03" rms="4.6652719378471375e-01" purity="6.0497033596038818e-01" nType="-99"/>
        </Node>
        <Node pos="r" depth="1" NCoef="0" IVar="6" Cut="9.0000000000000000e+00" cType="1" res="9.4213724136352539e-02" rms="4.3224847316741943e-01" purity="7.2877562046051025e-01" nType="0">
          <Node pos="l" depth="2" NCoef="0" IVar="-1" Cut="0.0000000000000000e+00" cType="1" res="-4.8477342352271080e-03" rms="4.5974841713905334e-01" purity="6.1674559116363525e-01" nType="-99"/>
          <Node pos="r" depth="2" NCoef="0" IVar="-1" Cut="0.0000000000000000e+00" cType="1" res="2.6918224990367889e-02" rms="4.2092940211296082e-01" purity="7.5508600473403931e-01" nType="-99"/>
        </Node>
      </Node>
    </BinaryTree>
    <BinaryTree type="DecisionTree" boostWeight="1.0000000000000000e+00" itree="17">
      <Node pos="s" depth="0" NCoef="0" IVar="4" Cut="2.0017345249652863e-01" cType="1" res="5.9313834644854069e-03" rms="4.4669786095619202e-01" purity="5.0645101070404053e-01" nType="0">
        <Node pos="l" depth="1" NCoef="0" IVar="1" Cut="1.8005190789699554e-01" cType="1" res="-1.0248319059610367e-01" rms="4.0957924723625183e-01" purity="2.7904233336448669e-01" nType="0">
          <Node pos="l" depth="2" NCoef="0" IVar="-1" Cut="0.0000000000000000e+00" cType="1" res="-3.9144847542047501e-02" rms="3.5184696316719055e-01" purity="1.6806678473949432e-01" nType="-99"/>
          <Node pos="r" depth="2" NCoef="0" IVar="-1" Cut="0.0000000000000000e+00" cType="1" res="6.6928411833941936e-03" rms="4.9699440598487854e-01" purity="5.4506033658981323e-01" nType="-99"/>
        </Node>
        <Node pos="r" depth="1" NCoef="0" IVar="6" Cut="8.8571424484252930e+00" cType="1" res="2.7861438691616058e-02" rms="4.5067694783210754e-01" purity="5.5245125293731689e-01" nType="0">
          <Node pos="l" depth="2" NCoef="0" IVar="-1" Cut="0.0000000000000000e+00" cType="1" res="-1.4528981409966946e-02" rms="4.2657303810119629e-01" purity="4.6883252263069153e-01" nType="-99"/>
          <Node pos="r" depth="2" NCoef="0" IVar="-1" Cut="0.0000000000000000e+00" cType="1" res="1.1155679821968079e-02" rms="4.5353209972381592e-01" purity="5.7182586193084717e-01" nType="-99"/>
        </Node>
      </Node>
    </BinaryTree>
    <BinaryTree type="DecisionTree" boostWeight="1.0000000000000000e+00" itree="18">
      <Node pos="s" depth="0" NCoef="0" IVar="2" Cut="2.4519009888172150e-01" cType="1" res="-5.0714304670691490e-03" rms="4.3845447897911072e-01" purity="5.0083088874816895e-01" nType="0">
        <Node pos="l" depth="1" NCoef="0" IVar="6" Cut="8.0000000000000000e+00" cType="1" res="-8.1160016357898712e-02" rms="3.8771551847457886e-01" purity="2.0963864028453827e-01" nType="0">
          <Node pos="l" depth="2" NCoef="0" IVar="-1" Cut="0.0000000000000000e+00" cType="1" res="-5.6684441864490509e-02" rms="2.2448199987411499e-01" purity="4.9913968890905380e-02" nType="-99"/>
          <Node pos="r" depth="2" NCoef="0" IVar="-1" Cut="0.0000000000000000e+00" cType="1" res="-1.4570788480341434e-02" rms="4.0478330850601196e-01" purity="2.3696424067020416e-01" nType="-99"/>
        </Node>
        <Node pos="r" depth="1" NCoef="0" IVar="4" Cut="7.9872429370880127e-01" cType="1" res="3.2240301370620728e-02" rms="4.5669147372245789e-01" purity="6.4362347126007080e-01" nType="0">
          <Node pos="l" depth="2" NCoef="0" IVar="-1" Cut="0.0000000000000000e+00" cType="1" res="1.8574916757643223e-03" rms="4.7908547520637512e-01" purity="5.8357435464859009e-01" nType="-99"/>
          <Node pos="r" depth="2" NCoef="0" IVar="-1" Cut="0.0000000000000000e+00" cType="1" res="2.6345331221818924e-02" rms="3.7095376849174500e-01" purity="8.2732743024826050e-01" nType="-99"/>
        </Node>
      </Node>
    </BinaryTree>
    <BinaryTree type="DecisionTree" boostWeight="1.0000000000000000e+00" itree="19">
      <Node pos="s" depth="0" NCoef="0" IVar="4" Cut="5.7590639591217041e-01" cType="1" res="-7.3873350629583001e-05" rms="4.3883553147315979e-01" purity="5.0314813852310181e-01" nType="0">
        <Node pos="l" depth="1" NCoef="0" IVar="4" Cut="1.6018508374691010e-01" cType="1" res="-3.1029378995299339e-02" rms="4.4043871760368347e-01" purity="4.0924277901649475e-01" nType="0">
          <Node pos="l" depth="2" NCoef="0" IVar="-1" Cut="0.0000000000000000e+00" cType="1" res="-3.9923131465911865e-02" rms="3.6330199241638184e-01" purity="1.9231992959976196e-01" nType="-99"/>
          <Node pos="r" depth="2" NCoef="0" IVar="-1" Cut="0.0000000000000000e+00" cType="1" res="-8.8851037435233593e-04" rms="4.4932332634925842e-01" purity="4.5238006114959717e-01" nType="-99"/>
        </Node>
        <Node pos="r" depth="1" NCoef="0" IVar="6" Cut="1.2142857551574707e+01" cType="1" res="5.8253601193428040e-02" rms="4.2978236079216003e-01" purity="6.8008804321289062e-01" nType="0">
          <Node pos="l" depth="2" NCoef="0" IVar="-1" Cut="0.0000000000000000e+00" cType="1" res="2.1974586416035891e-03" rms="4.2376509308815002e-01" purity="6.4177131652832031e-01" nType="-99"/>
          <Node pos="r" depth="2" NCoef="0" IVar="-1" Cut="0.0000000000000000e+00" cType="1" res="1.9224030897021294e-02" rms="4.3063542246818542e-01" purity="6.9733655452728271e-01" nType="-99"/>
        </Node>
      </Node>
    </BinaryTree>
    <BinaryTree type="DecisionTree" boostWeight="1.0000000000000000e+00" itree="20">
      <Node pos="s" depth="0" NCoef="0" IVar="4" Cut="8.4895616769790649e-01" cType="1" res="-7.3511912487447262e-03" rms="4.4177046418190002e-01" purity="4.9299642443656921e-01" nType="0">
        <Node pos="l" depth="1" NCoef="0" IVar="4" Cut="1.8644684553146362e-01" cType="1" res="-2.5624856352806091e-02" rms="4.4643062353134155e-01" purity="4.3804353475570679e-01" nType="0">
          <Node pos="l" depth="2" NCoef="0" IVar="-1" Cut="0.0000000000000000e+00" cType="1" res="-2.9070075601339340e-02" rms="3.8662654161453247e-01" purity="2.3052340745925903e-01" nType="-99"/>
          <Node pos="r" depth="2" NCoef="0" IVar="-1" Cut="0.0000000000000000e+00" cType="1" res="-1.0051297722384334e-03" rms="4.5601317286491394e-01" purity="4.8432210087776184e-01" nType="-99"/>
        </Node>
        <Node pos="r" depth="1" NCoef="0" IVar="5" Cut="4.7335489653050900e-03" cType="1" res="7.1727618575096130e-02" rms="4.1176509857177734e-01" purity="7.3080372810363770e-01" nType="0">
          <Node pos="l" depth="2" NCoef="0" IVar="-1" Cut="0.0000000000000000e+00" cType="1" res="3.1106445938348770e-02" rms="3.8829949498176575e-01" purity="7.6039808988571167e-01" nType="-99"/>
          <Node pos="r" depth="2" NCoef="0" IVar="-1" Cut="0.0000000000000000e+00" cType="1" res="8.4782755002379417e-03" rms="4.2238226532936096e-01" purity="7.1118062734603882e-01" nType="-99"/>
        </Node>
      </Node>
    </BinaryTree>
    <BinaryTree type="DecisionTree" boostWeight="1.0000000000000000e+00" itree="21">
      <Node pos="s" depth="0" NCoef="0" IVar="4" Cut="5.7619392871856689e-01" cType="1" res="8.9710047468543053e-03" rms="4.3676492571830750e-01" purity="5.1516640186309814e-01" nType="0">
        <Node pos="l" depth="1" NCoef="0" IVar="3" Cut="4.3567436933517456e-01" cType="1" res="-3.4014351665973663e-02" rms="4.4188943505287170e-01" purity="3.9849108457565308e-01" nType="0">
          <Node pos="l" depth="2" NCoef="0" IVar="-1" Cut="0.0000000000000000e+00" cType="1" res="-1.5289471484720707e-02" rms="4.2106395959854126e-01" purity="3.1169173121452332e-01" nType="-99"/>
          <Node pos="r" depth="2" NCoef="0" IVar="-1" Cut="0.0000000000000000e+00" cType="1" res="8.5464892908930779e-03" rms="4.8201531171798706e-01" purity="6.1584633588790894e-01" nType="-99"/>
        </Node>
        <Node pos="r" depth="1" NCoef="0" IVar="4" Cut="8.2323074340820312e-01" cType="1" res="7.9336129128932953e-02" rms="4.1882809996604919e-01" purity="7.0615875720977783e-01" nType="0">
          <Node pos="l" depth="2" NCoef="0" IVar="-1" Cut="0.0000000000000000e+00" cType="1" res="1.1268165893852711e-02" rms="4.5036864280700684e-01" purity="6.3279736042022705e-01" nType="-99"/>
          <Node pos="r" depth="2" NCoef="0" IVar="-1" Cut="0.0000000000000000e+00" cType="1" res="2.5036893784999847e-02" rms="3.9308869838714600e-01" purity="7.5888478755950928e-01" nType="-99"/>
        </Node>
      </Node>
    </BinaryTree>
    <BinaryTree type="DecisionTree" boostWeight="1.0000000000000000e+00" itree="22">
      <Node pos="s" depth="0" NCoef="0" IVar="6" Cut="8.8571424484252930e+00" cType="1" res="6.2260441482067108e-03" rms="4.4244977831840515e-01" purity="5.0452554225921631e-01" nType="0">
        <Node pos="l" depth="1" NCoef="0" IVar="3" Cut="3.9560335874557495e-01" cType="1" res="-8.7147571146488190e-02" rms="4.2417037487030029e-01" purity="3.7267461419105530e-01" nType="0">
          <Node pos="l" depth="2" NCoef="0" IVar="-1" Cut="0.0000000000000000e+00" cType="1" res="-3.0768180266022682e-02" rms="3.9343529939651489e-01" purity="2.4464191496372223e-01" nType="-99"/>
          <Node pos="r" depth="2" NCoef="0" IVar="-1" Cut="0.0000000000000000e+00" cType="1" res="-4.8500229604542255e-03" rms="4.6793571114540100e-01" purity="6.0531872510910034e-01" nType="-99"/>
        </Node>
        <Node pos="r" depth="1" NCoef="0" IVar="3" Cut="2.3340438306331635e-01" cType="1" res="2.6278652250766754e-02" rms="4.4372212886810303e-01" purity="5.3284144401550293e-01" nType="0">
          <Node pos="l" depth="2" NCoef="0" IVar="-1" Cut="0.0000000000000000e+00" cType="1" res="-2.3313043639063835e-03" rms="4.3816483020782471e-01" purity="3.4289994835853577e-01" nType="-99"/>
          <Node pos="r" depth="2" NCoef="0" IVar="-1" Cut="0.0000000000000000e+00" cType="1" res="1.3289267197251320e-02" rms="4.4617578387260437e-01" purity="7.0196729898452759e-01" nType="-99"/>
        </Node>
      </Node>
    </BinaryTree>
    <BinaryTree type="DecisionTree" boostWeight="1.0000000000000000e+00" itree="23">
      <Node pos="s" depth="0" NCoef="0" IVar="3" Cut="2.1783074736595154e-01" cType="1" res="7.6587176881730556e-03" rms="4.3970474600791931e-01" purity="5.1021683216094971e-01" nType="0">
        <Node pos="l" depth="1" NCoef="0" IVar="1" Cut="2.0328762009739876e-02" cType="1" res="-3.2386615872383118e-02" rms="4.2271125316619873e-01" purity="2.9938805103302002e-01" nType="0">
          <Node pos="l" depth="2" NCoef="0" IVar="-1" Cut="0.0000000000000000e+00" cType="1" res="-3.5615596920251846e-02" rms="3.2609689235687256e-01" purity="1.5091410279273987e-01" nType="-99"/>
          <Node pos="r" depth="2" NCoef="0" IVar="-1" Cut="0.0000000000000000e+00" cType="1" res="-1.4120296109467745e-03" rms="4.4078072905540466e-01" purity="3.3836045861244202e-01" nType="-99"/>
        </Node>
        <Node pos="r" depth="1" NCoef="0" IVar="6" Cut="3.4714286804199219e+01" cType="1" res="3.9899110794067383e-02" rms="4.5034298300743103e-01" purity="6.7995452880859375e-01" nType="0">
          <Node pos="l" depth="2" NCoef="0" IVar="-1" Cut="0.0000000000000000e+00" cType="1" res="1.0937526822090149e-02" rms="4.4686767458915710e-01" purity="6.8831497430801392e-01" nType="-99"/>
          <Node pos="r" depth="2" NCoef="0" IVar="-1" Cut="0.0000000000000000e+00" cType="1" res="-1.8445577472448349e-02" rms="4.8493537306785583e-01" purity="5.5143845081329346e-01" nType="-99"/>
        </Node>
      </Node>
    </BinaryTree>
    <BinaryTree type="DecisionTree" boostWeight="1.0000000000000000e+00" itree="24">
      <Node pos="s" depth="0" NCoef="0" IVar="6" Cut="8.8571424484252930e+00" cType="1" res="8.7229609489440918e-03" rms="4.4363760948181152e-01" purity="5.0801223516464233e-01" nType="0">
        <Node pos="l" depth="1" NCoef="0" IVar="3" Cut="4.0408375859260559e-01" cType="1" res="-5.9415321797132492e-02" rms="4.2172616720199585e-01" purity="4.0404915809631348e-01" nType="0">
          <Node pos="l" depth="2" NCoef="0" IVar="-1" Cut="0.0000000000000000e+00" cType="1" res="-2.7541466057300568e-02" rms="3.9177656173706055e-01" purity="2.5411930680274963e-01" nType="-99"/>
          <Node pos="r" depth="2" NCoef="0" IVar="-1" Cut="0.0000000000000000e+00" cType="1" res="5.4183164611458778e-03" rms="4.5651277899742126e-01" purity="6.6015028953552246e-01" nType="-99"/>
        </Node>
        <Node pos="r" depth="1" NCoef="0" IVar="5" Cut="4.5237354934215546e-02" cType="1" res="2.3387866094708443e-02" rms="4.4685670733451843e-01" purity="5.3038746118545532e-01" nType="0">
          <Node pos="l" depth="2" NCoef="0" IVar="-1" Cut="0.0000000000000000e+00" cType="1" res="4.4265454635024071e-03" rms="4.4623026251792908e-01" purity="5.2404236793518066e-01" nType="-99"/>
          <Node pos="r" depth="2" NCoef="0" IVar="-1" Cut="0.0000000000000000e+00" cType="1" res="2.6420347392559052e-02" rms="4.4881388545036316e-01" purity="6.5943956375122070e-01" nType="-99"/>
        </Node>
      </Node>
    </BinaryTree>
    <BinaryTree type="DecisionTree" boostWeight="1.0000000000000000e+00" itree="25">
      <Node pos="s" depth="0" NCoef="0" IVar="6" Cut="8.0952377319335938e+00" cType="1" res="2.5466769002377987e-03" rms="4.4262552261352539e-01" purity="5.0189846754074097e-01" nType="0">
        <Node pos="l" depth="1" NCoef="0" IVar="4" Cut="6.3688129186630249e-01" cType="1" res="-6.4779028296470642e-02" rms="4.0726208686828613e-01" purity="4.0006172657012939e-01" nType="0">
          <Node pos="l" depth="2" NCoef="0" IVar="-1" Cut="0.0000000000000000e+00" cType="1" res="-2.7216427028179169e-02" rms="4.0207651257514954e-01" purity="2.7356818318367004e-01" nType="-99"/>
          <Node pos="r" depth="2" NCoef="0" IVar="-1" Cut="0.0000000000000000e+00" cType="1" res="1.0196947492659092e-02" rms="3.9927172660827637e-01" purity="6.8940788507461548e-01" nType="-99"/>
        </Node>
        <Node pos="r" depth="1" NCoef="0" IVar="4" Cut="1.0270551443099976e+00" cType="1" res="1.8007177859544754e-02" rms="4.4893115758895874e-01" purity="5.2528405189514160e-01" nType="0">
          <Node pos="l" depth="2" NCoef="0" IVar="-1" Cut="0.0000000000000000e+00" cType="1" res="1.8269282300025225e-03" rms="4.5374208688735962e-01" purity="4.9183362722396851e-01" nType="-99"/>
          <Node pos="r" depth="2" NCoef="0" IVar="-1" Cut="0.0000000000000000e+00" cType="1" res="2.2520150989294052e-02" rms="4.0724343061447144e-01" purity="7.5666302442550659e-01" nType="-99"/>
        </Node>
      </Node>
    </BinaryTree>
    <BinaryTree type="DecisionTree" boostWeight="1.0000000000000000e+00" itree="26">
      <Node pos="s" depth="0" NCoef="0" IVar="4" Cut="8.2744497060775757e-01" cType="1" res="-2.7848198078572750e-03" rms="4.3601131439208984e-01" purity="4.9647536873817444e-01" nType="0">
        <Node pos="l" depth="1" NCoef="0" IVar="4" Cut="6.8298742175102234e-02" cType="1" res="-2.2136632353067398e-02" rms="4.4389659166336060e-01" purity="4.2684781551361084e-01" nType="0">
          <Node pos="l" depth="2" NCoef="0" IVar="-1" Cut="0.0000000000000000e+00" cType="1" res="-5.7798899710178375e-02" rms="3.0889782309532166e-01" purity="8.3918303251266479e-02" nType="-99"/>
          <Node pos="r" depth="2" NCoef="0" IVar="-1" Cut="0.0000000000000000e+00" cType="1" res="-2.9930225573480129e-03" rms="4.4716423749923706e-01" purity="4.4316285848617554e-01" nType="-99"/>
        </Node>
        <Node pos="r" depth="1" NCoef="0" IVar="5" Cut="4.7539765946567059e-03" cType="1" res="6.8166889250278473e-02" rms="3.9781901240348816e-01" purity="7.5175881385803223e-01" nType="0">
          <Node pos="l" depth="2" NCoef="0" IVar="-1" Cut="0.0000000000000000e+00" cType="1" res="2.6208011433482170e-02" rms="3.9693120121955872e-01" purity="7.5815254449844360e-01" nType="-99"/>
          <Node pos="r" depth="2" NCoef="0" IVar="-1" Cut="0.0000000000000000e+00" cType="1" res="1.2223644182085991e-02" rms="3.9676007628440857e-01" purity="7.4790638685226440e-01" nType="-99"/>
        </Node>
      </Node>
    </BinaryTree>
    <BinaryTree type="DecisionTree" boostWeight="1.0000000000000000e+00" itree="27">
      <Node pos="s" depth="0" NCoef="0" IVar="5" Cut="3.0952416360378265e-02" cType="1" res="4.1719567961990833e-03" rms="4.3682089447975159e-01" purity="5.0966256856918335e-01" nType="0">
        <Node pos="l" depth="1" NCoef="0" IVar="4" Cut="5.7637280225753784e-01" cType="1" res="-1.1073997244238853e-02" rms="4.3416237831115723e-01" purity="4.8011836409568787e-01" nType="0">
          <Node pos="l" depth="2" NCoef="0" IVar="-1" Cut="0.0000000000000000e+00" cType="1" res="-8.2464432343840599e-03" rms="4.3409982323646545e-01" purity="3.7905856966972351e-01" nType="-99"/>
          <Node pos="r" depth="2" NCoef="0" IVar="-1" Cut="0.0000000000000000e+00" cType="1" res="8.3537092432379723e-03" rms="4.3073660135269165e-01" purity="6.7107373476028442e-01" nType="-99"/>
        </Node>
        <Node pos="r" depth="1" NCoef="0" IVar="6" Cut="1.3000000000000000e+01" cType="1" res="6.2714770436286926e-02" rms="4.4202265143394470e-01" purity="6.2310910224914551e-01" nType="0">
          <Node pos="l" depth="2" NCoef="0" IVar="-1" Cut="0.0000000000000000e+00" cType="1" res="-2.4313782341778278e-03" rms="4.2421886324882507e-01" purity="5.4690939188003540e-01" nType="-99"/>
          <Node pos="r" depth="2" NCoef="0" IVar="-1" Cut="0.0000000000000000e+00" cType="1" res="2.3250248283147812e-02" rms="4.4630330801010132e-01" purity="6.6231238842010498e-01" nType="-99"/>
        </Node>
      </Node>
    </BinaryTree>
    <BinaryTree type="DecisionTree" boostWeight="1.0000000000000000e+00" itree="28">
      <Node pos="s" depth="0" NCoef="0" IVar="4" Cut="4.2918586730957031e-01" cType="1" res="-9.8547423258423805e-03" rms="4.3964383006095886e-01" purity="4.8940080404281616e-01" nType="0">
        <Node pos="l" depth="1" NCoef="0" IVar="4" Cut="1.8245829641819000e-01" cType="1" res="-4.0527455508708954e-02" rms="4.3645635247230530e-01" purity="3.5935196280479431e-01" nType="0">
          <Node pos="l" depth="2" NCoef="0" IVar="-1" Cut="0.0000000000000000e+00" cType="1" res="-2.9403747990727425e-02" rms="3.7756881117820740e-01" purity="1.9676020741462708e-01" nType="-99"/>
          <Node pos="r" depth="2" NCoef="0" IVar="-1" Cut="0.0000000000000000e+00" cType="1" res="-3.4031029790639877e-03" rms="4.5274433493614197e-01" purity="4.1700738668441772e-01" nType="-99"/>
        </Node>
        <Node pos="r" depth="1" NCoef="0" IVar="5" Cut="2.3809217382222414e-03" cType="1" res="2.2743957117199898e-02" rms="4.4067221879959106e-01" purity="6.2761557102203369e-01" nType="0">
          <Node pos="l" depth="2" NCoef="0" IVar="-1" Cut="0.0000000000000000e+00" cType="1" res="2.2861918434500694e-02" rms="4.4432258605957031e-01" purity="6.6575008630752563e-01" nType="-99"/>
          <Node pos="r" depth="2" NCoef="0" IVar="-1" Cut="0.0000000000000000e+00" cType="1" res="2.0419969223439693e-04" rms="4.3720948696136475e-01" purity="6.1601227521896362e-01" nType="-99"/>
        </Node>
      </Node>
    </BinaryTree>
    <BinaryTree type="DecisionTree" boostWeight="1.0000000000000000e+00" itree="29">
      <Node pos="s" depth="0" NCoef="0" IVar="3" Cut="2.3495733737945557e-01" cType="1" res="-4.0467795915901661e-03" rms="4.3125751614570618e-01" purity="5.0113004446029663e-01" nType="0">
        <Node pos="l" depth="1" NCoef="0" IVar="3" Cut="7.9409338533878326e-02" cType="1" res="-4.5168925076723099e-02" rms="4.1570428013801575e-01" purity="2.8851509094238281e-01" nType="0">
          <Node pos="l" depth="2" NCoef="0" IVar="-1" Cut="0.0000000000000000e+00" cType="1" res="-3.3233791589736938e-02" rms="3.2806691527366638e-01" purity="1.3663844764232635e-01" nType="-99"/>
          <Node pos="r" depth="2" NCoef="0" IVar="-1" Cut="0.0000000000000000e+00" cType="1" res="-3.9836782962083817e-03" rms="4.4241285324096680e-01" purity="3.4856852889060974e-01" nType="-99"/>
        </Node>
        <Node pos="r" depth="1" NCoef="0" IVar="5" Cut="3.0952416360378265e-02" cType="1" res="3.2154537737369537e-02" rms="4.4133943319320679e-01" purity="6.8830275535583496e-01" nType="0">
          <Node pos="l" depth="2" NCoef="0" IVar="-1" Cut="0.0000000000000000e+00" cType="1" res="3.1566023826599121e-03" rms="4.4715508818626404e-01" purity="6.6692352294921875e-01" nType="-99"/>
          <Node pos="r" depth="2" NCoef="0" IVar="-1" Cut="0.0000000000000000e+00" cType="1" res="1.9652467221021652e-02" rms="4.2087590694427490e-01" purity="7.4669724702835083e-01" nType="-99"/>
        </Node>
      </Node>
    </BinaryTree>
    <BinaryTree type="DecisionTree" boostWeight="1.0000000000000000e+00" itree="30">
      <Node pos="s" depth="0" NCoef="0" IVar="3" Cut="2.1716603636741638e-01" cType="1" res="9.6386962104588747e-04" rms="4.3702262639999390e-01" purity="5.0440376996994019e-01" nType="0">
        <Node pos="l" depth="1" NCoef="0" IVar="3" Cut="1.1388150602579117e-01" cType="1" res="-2.9989251866936684e-02" rms="4.1880172491073608e-01" purity="2.9165148735046387e-01" nType="0">
          <Node pos="l" depth="2" NCoef="0" IVar="-1" Cut="0.0000000000000000e+00" cType="1" res="-2.6404595002532005e-02" rms="3.4922385215759277e-01" purity="1.6576941311359406e-01" nType="-99"/>
          <Node pos="r" depth="2" NCoef="0" IVar="-1" Cut="0.0000000000000000e+00" cType="1" res="7.0082279853522778e-03" rms="4.6700429916381836e-01" purity="4.0983724594116211e-01" nType="-99"/>
        </Node>
        <Node pos="r" depth="1" NCoef="0" IVar="5" Cut="1.1903665028512478e-02" cType="1" res="2.5637738406658173e-02" rms="4.4949603080749512e-01" purity="6.7399644851684570e-01" nType="0">
          <Node pos="l" depth="2" NCoef="0" IVar="-1" Cut="0.0000000000000000e+00" cType="1" res="-2.2248842287808657e-03" rms="4.5235043764114380e-01" purity="6.4115661382675171e-01" nType="-99"/>
          <Node pos="r" depth="2" NCoef="0" IVar="-1" Cut="0.0000000000000000e+00" cType="1" res="1.2845907360315323e-02" rms="4.4489210844039917e-01" purity="7.0186740159988403e-01" nType="-99"/>
        </Node>
      </Node>
    </BinaryTree>
    <BinaryTree type="DecisionTree" boostWeight="1.0000000000000000e+00" itree="31">
      <Node pos="s" depth="0" NCoef="0" IVar="3" Cut="2.3340438306331635e-01" cType="1" res="-6.3526267185807228e-03" rms="4.3719530105590820e-01" purity="4.9095219373703003e-01" nType="0">
        <Node pos="l" depth="1" NCoef="0" IVar="6" Cut="2.0238094329833984e+01" cType="1" res="-3.0499169602990150e-02" rms="4.1830742359161377e-01" purity="2.9227027297019958e-01" nType="0">
          <Node pos="l" depth="2" NCoef="0" IVar="-1" Cut="0.0000000000000000e+00" cType="1" res="-1.6819009557366371e-02" rms="3.8807493448257446e-01" purity="2.5451698899269104e-01" nType="-99"/>
          <Node pos="r" depth="2" NCoef="0" IVar="-1" Cut="0.0000000000000000e+00" cType="1" res="8.1594847142696381e-03" rms="4.6201023459434509e-01" purity="3.6142975091934204e-01" nType="-99"/>
        </Node>
        <Node pos="r" depth="1" NCoef="0" IVar="5" Cut="9.5304520800709724e-03" cType="1" res="1.5537225641310215e-02" rms="4.5252680778503418e-01" purity="6.7106568813323975e-01" nType="0">
          <Node pos="l" depth="2" NCoef="0" IVar="-1" Cut="0.0000000000000000e+00" cType="1" res="-3.4653274342417717e-03" rms="4.5141592621803284e-01" purity="6.4760017395019531e-01" nType="-99"/>
          <Node pos="r" depth="2" NCoef="0" IVar="-1" Cut="0.0000000000000000e+00" cType="1" res="8.5641806945204735e-03" rms="4.5209863781929016e-01" purity="6.8767744302749634e-01" nType="-99"/>
        </Node>
      </Node>
    </BinaryTree>
    <BinaryTree type="DecisionTree" boostWeight="1.0000000000000000e+00" itree="32">
      <Node pos="s" depth="0" NCoef="0" IVar="3" Cut="2.2469694912433624e-01" cType="1" res="-1.2375687249004841e-02" rms="4.2793008685112000e-01" purity="4.9181634187698364e-01" nType="0">
        <Node pos="l" depth="1" NCoef="0" IVar="5" Cut="2.3771920241415501e-03" cType="1" res="-4.7698449343442917e-02" rms="4.0267884731292725e-01" purity="2.6651978492736816e-01" nType="0">
          <Node pos="l" depth="2" NCoef="0" IVar="-1" Cut="0.0000000000000000e+00" cType="1" res="6.1748898588120937e-03" rms="4.3955084681510925e-01" purity="3.4552448987960815e-01" nType="-99"/>
          <Node pos="r" depth="2" NCoef="0" IVar="-1" Cut="0.0000000000000000e+00" cType="1" res="-1.8423303961753845e-02" rms="3.8694319128990173e-01" purity="2.4064986407756805e-01" nType="-99"/>
        </Node>
        <Node pos="r" depth="1" NCoef="0" IVar="0" Cut="9.2026215791702271e-01" cType="1" res="1.6579721122980118e-02" rms="4.4548404216766357e-01" purity="6.7650055885314941e-01" nType="0">
          <Node pos="l" depth="2" NCoef="0" IVar="-1" Cut="0.0000000000000000e+00" cType="1" res="6.5397378057241440e-03" rms="4.4282066822052002e-01" purity="6.8518388271331787e-01" nType="-99"/>
          <Node pos="r" depth="2" NCoef="0" IVar="-1" Cut="0.0000000000000000e+00" cType="1" res="-1.1943247169256210e-02" rms="4.5543113350868225e-01" purity="6.2478953599929810e-01" nType="-99"/>
        </Node>
      </Node>
    </BinaryTree>
    <BinaryTree type="DecisionTree" boostWeight="1.0000000000000000e+00" itree="33">
      <Node pos="s" depth="0" NCoef="0" IVar="5" Cut="3.0938602983951569e-02" cType="1" res="1.3947157189249992e-02" rms="4.4073769450187683e-01" purity="5.0952380895614624e-01" nType="0">
        <Node pos="l" depth="1" NCoef="0" IVar="3" Cut="2.1625538170337677e-01" cType="1" res="8.3708798047155142e-04" rms="4.3810233473777771e-01" purity="4.7982725501060486e-01" nType="0">
          <Node pos="l" depth="2" NCoef="0" IVar="-1" Cut="0.0000000000000000e+00" cType="1" res="-5.1040658727288246e-03" rms="4.1833066940307617e-01" purity="2.7943873405456543e-01" nType="-99"/>
          <Node pos="r" depth="2" NCoef="0" IVar="-1" Cut="0.0000000000000000e+00" cType="1" res="4.4559901580214500e-03" rms="4.5460718870162964e-01" purity="6.6257268190383911e-01" nType="-99"/>
        </Node>
        <Node pos="r" depth="1" NCoef="0" IVar="5" Cut="4.0006130933761597e-02" cType="1" res="6.6123850643634796e-02" rms="4.4728165864944458e-01" purity="6.2771290540695190e-01" nType="0">
          <Node pos="l" depth="2" NCoef="0" IVar="-1" Cut="0.0000000000000000e+00" cType="1" res="2.5839244946837425e-02" rms="4.2859572172164917e-01" purity="6.7576611042022705e-01" nType="-99"/>
          <Node pos="r" depth="2" NCoef="0" IVar="-1" Cut="0.0000000000000000e+00" cType="1" res="3.2252792734652758e-03" rms="4.6449592709541321e-01" purity="5.6699764728546143e-01" nType="-99"/>
        </Node>
      </Node>
    </BinaryTree>
    <BinaryTree type="DecisionTree" boostWeight="1.0000000000000000e+00" itree="34">
      <Node pos="s" depth="0" NCoef="0" IVar="0" Cut="4.5437255501747131e-01" cType="1" res="6.8503813818097115e-03" rms="4.3775022029876709e-01" purity="5.0303655862808228e-01" nType="0">
        <Node pos="l" depth="1" NCoef="0" IVar="0" Cut="3.8915708661079407e-01" cType="1" res="1.7379723489284515e-02" rms="4.3200606107711792e-01" purity="4.7861763834953308e-01" nType="0">
          <Node pos="l" depth="2" NCoef="0" IVar="-1" Cut="0.0000000000000000e+00" cType="1" res="5.9425244107842445e-03" rms="4.3010482192039490e-01" purity="4.7692871093750000e-01" nType="-99"/>
          <Node pos="r" depth="2" NCoef="0" IVar="-1" Cut="0.0000000000000000e+00" cType="1" res="-2.9656520113348961e-02" rms="4.4899430871009827e-01" purity="5.1595157384872437e-01" nType="-99"/>
        </Node>
        <Node pos="r" depth="1" NCoef="0" IVar="3" Cut="8.6714571714401245e-01" cType="1" res="-3.6224883049726486e-02" rms="4.5798996090888977e-01" purity="6.0293382406234741e-01" nType="0">
          <Node pos="l" depth="2" NCoef="0" IVar="-1" Cut="0.0000000000000000e+00" cType="1" res="-2.9509004205465317e-02" rms="4.6830537915229797e-01" purity="4.7172668576240540e-01" nType="-99"/>
          <Node pos="r" depth="2" NCoef="0" IVar="-1" Cut="0.0000000000000000e+00" cType="1" res="1.1252813041210175e-02" rms="4.3181198835372925e-01" purity="7.1986508369445801e-01" nType="-99"/>
        </Node>
      </Node>
    </BinaryTree>
    <BinaryTree type="DecisionTree" boostWeight="1.0000000000000000e+00" itree="35">
      <Node pos="s" depth="0" NCoef="0" IVar="3" Cut="1.3466711044311523e+00" cType="1" res="-3.6792575847357512e-03" rms="4.3346759676933289e-01" purity="4.9624425172805786e-01" nType="0">
        <Node pos="l" depth="1" NCoef="0" IVar="3" Cut="1.2801976501941681e-01" cType="1" res="-1.0243943892419338e-02" rms="4.3410655856132507e-01" purity="4.7643777728080750e-01" nType="0">
          <Node pos="l" depth="2" NCoef="0" IVar="-1" Cut="0.0000000000000000e+00" cType="1" res="-1.6536945477128029e-02" rms="3.7141442298889160e-01" purity="1.9545070827007294e-01" nType="-99"/>
          <Node pos="r" depth="2" NCoef="0" IVar="-1" Cut="0.0000000000000000e+00" cType="1" res="1.9816227722913027e-03" rms="4.5507693290710449e-01" purity="5.8708626031875610e-01" nType="-99"/>
        </Node>
        <Node pos="r" depth="1" NCoef="0" IVar="-1" Cut="0.0000000000000000e+00" cType="1" res="1.9707724452018738e-02" rms="4.1561082005500793e-01" purity="7.5501799583435059e-01" nType="-99"/>
      </Node>
    </BinaryTree>
    <BinaryTree type="DecisionTree" boostWeight="1.0000000000000000e+00" itree="36">
      <Node pos="s" depth="0" NCoef="0" IVar="6" Cut="4.4285712242126465e+00" cType="1" res="1.4062632806599140e-02" rms="4.3325677514076233e-01" purity="5.1845318078994751e-01" nType="0">
        <Node pos="l" depth="1" NCoef="0" IVar="-1" Cut="0.0000000000000000e+00" cType="1" res="-4.4380348175764084e-02" rms="3.6020439863204956e-01" purity="2.3904813826084137e-01" nType="-99"/>
        <Node pos="r" depth="1" NCoef="0" IVar="3" Cut="4.4895258545875549e-01" cType="1" res="2.1066036075353622e-02" rms="4.3428280949592590e-01" purity="5.2915358543395996e-01" nType="0">
          <Node pos="l" depth="2" NCoef="0" IVar="-1" Cut="0.0000000000000000e+00" cType="1" res="1.9719260744750500e-03" rms="4.3618643283843994e-01" purity="4.4461628794670105e-01" nType="-99"/>
          <Node pos="r" depth="2" NCoef="0" IVar="-1" Cut="0.0000000000000000e+00" cType="1" res="1.2501844204962254e-02" rms="4.2819055914878845e-01" purity="7.2777825593948364e-01" nType="-99"/>
        </Node>
      </Node>
    </BinaryTree>
    <BinaryTree type="DecisionTree" boostWeight="1.0000000000000000e+00" itree="37">
      <Node pos="s" depth="0" NCoef="0" IVar="2" Cut="2.4307407438755035e-01" cType="1" res="5.1833195611834526e-03" rms="4.3465134501457214e-01" purity="5.0955629348754883e-01" nType="0">
        <Node pos="l" depth="1" NCoef="0" IVar="0" Cut="1.7071548104286194e-01" cType="1" res="-3.0177852138876915e-02" rms="3.8870531320571899e-01" purity="2.2734972834587097e-01" nType="0">
          <Node pos="l" depth="2" NCoef="0" IVar="-1" Cut="0.0000000000000000e+00" cType="1" res="-4.9119847826659679e-03" rms="3.8965550065040588e-01" purity="2.3422785103321075e-01" nType="-99"/>
          <Node pos="r" depth="2" NCoef="0" IVar="-1" Cut="0.0000000000000000e+00" cType="1" res="-4.2830821126699448e-02" rms="3.4721130132675171e-01" purity="1.5122348070144653e-01" nType="-99"/>
        </Node>
        <Node pos="r" depth="1" NCoef="0" IVar="0" Cut="2.3133389651775360e-01" cType="1" res="2.2349214181303978e-02" rms="4.5429557561874390e-01" purity="6.4655196666717529e-01" nType="0">
          <Node pos="l" depth="2" NCoef="0" IVar="-1" Cut="0.0000000000000000e+00" cType="1" res="1.4201615005731583e-02" rms="4.4678479433059692e-01" purity="6.7832881212234497e-01" nType="-99"/>
          <Node pos="r" depth="2" NCoef="0" IVar="-1" Cut="0.0000000000000000e+00" cType="1" res="3.0089492793194950e-04" rms="4.5698222517967224e-01" purity="6.2916994094848633e-01" nType="-99"/>
        </Node>
      </Node>
    </BinaryTree>
    <BinaryTree type="DecisionTree" boostWeight="1.0000000000000000e+00" itree="38">
      <Node pos="s" depth="0" NCoef="0" IVar="5" Cut="2.3845336399972439e-03" cType="1" res="3.1121619977056980e-03" rms="4.3750968575477600e-01" purity="5.0148862600326538e-01" nType="0">
        <Node pos="l" depth="1" NCoef="0" IVar="5" Cut="1.9294259836897254e-03" cType="1" res="5.7142913341522217e-02" rms="4.4045421481132507e-01" purity="5.3478336334228516e-01" nType="0">
          <Node pos="l" depth="2" NCoef="0" IVar="-1" Cut="0.0000000000000000e+00" cType="1" res="1.8407216295599937e-02" rms="4.4207561016082764e-01" purity="5.5491167306900024e-01" nType="-99"/>
          <Node pos="r" depth="2" NCoef="0" IVar="-1" Cut="0.0000000000000000e+00" cType="1" res="-1.0500294156372547e-02" rms="4.1725510358810425e-01" purity="4.1229373216629028e-01" nType="-99"/>
        </Node>
        <Node pos="r" depth="1" NCoef="0" IVar="6" Cut="4.4285712242126465e+00" cType="1" res="-1.1748739518225193e-02" rms="4.3552252650260925e-01" purity="4.9233108758926392e-01" nType="0">
          <Node pos="l" depth="2" NCoef="0" IVar="-1" Cut="0.0000000000000000e+00" cType="1" res="-3.5379022359848022e-02" rms="3.8113063573837280e-01" purity="2.6441305875778198e-01" nType="-99"/>
          <Node pos="r" depth="2" NCoef="0" IVar="-1" Cut="0.0000000000000000e+00" cType="1" res="-1.4931326732039452e-03" rms="4.3696379661560059e-01" purity="5.0263035297393799e-01" nType="-99"/>
        </Node>
      </Node>
    </BinaryTree>
    <BinaryTree type="DecisionTree" boostWeight="1.0000000000000000e+00" itree="39">
      <Node pos="s" depth="0" NCoef="0" IVar="4" Cut="5.7528066635131836e-01" cType="1" res="7.7064125798642635e-03" rms="4.3124040961265564e-01" purity="5.1446831226348877e-01" nType="0">
        <Node pos="l" depth="1" NCoef="0" IVar="2" Cut="2.4532292783260345e-01" cType="1" res="-1.0608860291540623e-02" rms="4.3360787630081177e-01" purity="4.1517907381057739e-01" nType="0">
          <Node pos="l" depth="2" NCoef="0" IVar="-1" Cut="0.0000000000000000e+00" cType="1" res="-2.1412231028079987e-02" rms="3.2786133885383606e-01" purity="1.3952164351940155e-01" nType="-99"/>
          <Node pos="r" depth="2" NCoef="0" IVar="-1" Cut="0.0000000000000000e+00" cType="1" res="4.5141121372580528e-03" rms="4.7952470183372498e-01" purity="5.6845879554748535e-01" nType="-99"/>
        </Node>
        <Node pos="r" depth="1" NCoef="0" IVar="5" Cut="9.4748325645923615e-03" cType="1" res="4.0242977440357208e-02" rms="4.2506054043769836e-01" purity="6.9085282087326050e-01" nType="0">
          <Node pos="l" depth="2" NCoef="0" IVar="-1" Cut="0.0000000000000000e+00" cType="1" res="1.8449245020747185e-02" rms="4.2761906981468201e-01" purity="6.9358921051025391e-01" nType="-99"/>
          <Node pos="r" depth="2" NCoef="0" IVar="-1" Cut="0.0000000000000000e+00" cType="1" res="-1.8982653273269534e-04" rms="4.1825196146965027e-01" purity="6.8744134902954102e-01" nType="-99"/>
        </Node>
      </Node>
    </BinaryTree>
    <BinaryTree type="DecisionTree" boostWeight="1.0000000000000000e+00" itree="40">
      <Node pos="s" depth="0" NCoef="0" IVar="6" Cut="4.4285712242126465e+00" cType="1" res="-3.1393789686262608e-03" rms="4.3532449007034302e-01" purity="4.9525770545005798e-01" nType="0">
        <Node pos="l" depth="1" NCoef="0" IVar="-1" Cut="0.0000000000000000e+00" cType="1" res="-4.2048778384923935e-02" rms="3.4300687909126282e-01" purity="2.1457037329673767e-01" nType="-99"/>
        <Node pos="r" depth="1" NCoef="0" IVar="5" Cut="1.1905716732144356e-02" cType="1" res="2.7411726769059896e-03" rms="4.3764135241508484e-01" purity="5.0662821531295776e-01" nType="0">
          <Node pos="l" depth="2" NCoef="0" IVar="-1" Cut="0.0000000000000000e+00" cType="1" res="-4.4150473549962044e-03" rms="4.3215027451515198e-01" purity="4.4951471686363220e-01" nType="-99"/>
          <Node pos="r" depth="2" NCoef="0" IVar="-1" Cut="0.0000000000000000e+00" cType="1" res="6.7790676839649677e-03" rms="4.4307923316955566e-01" purity="5.7753157615661621e-01" nType="-99"/>
        </Node>
      </Node>
    </BinaryTree>
    <BinaryTree type="DecisionTree" boostWeight="1.0000000000000000e+00" itree="41">
      <Node pos="s" depth="0" NCoef="0" IVar="5" Cut="2.3806402459740639e-03" cType="1" res="-4.2503508739173412e-03" rms="4.2788913846015930e-01" purity="5.0097709894180298e-01" nType="0">
        <Node pos="l" depth="1" NCoef="0" IVar="5" Cut="1.2470454676076770e-03" cType="1" res="4.7699179500341415e-02" rms="4.2649248242378235e-01" purity="5.4224175214767456e-01" nType="0">
          <Node pos="l" depth="2" NCoef="0" IVar="-1" Cut="0.0000000000000000e+00" cType="1" res="1.8196342280134559e-03" rms="4.1810294985771179e-01" purity="5.1284259557723999e-01" nType="-99"/>
          <Node pos="r" depth="2" NCoef="0" IVar="-1" Cut="0.0000000000000000e+00" cType="1" res="2.1753827109932899e-02" rms="4.3065124750137329e-01" purity="5.6867396831512451e-01" nType="-99"/>
        </Node>
        <Node pos="r" depth="1" NCoef="0" IVar="1" Cut="3.6003935337066650e-01" cType="1" res="-1.9017359241843224e-02" rms="4.2713358998298645e-01" purity="4.8924735188484192e-01" nType="0">
          <Node pos="l" depth="2" NCoef="0" IVar="-1" Cut="0.0000000000000000e+00" cType="1" res="-7.8946519643068314e-03" rms="4.2431107163429260e-01" purity="4.4789361953735352e-01" nType="-99"/>
          <Node pos="r" depth="2" NCoef="0" IVar="-1" Cut="0.0000000000000000e+00" cType="1" res="1.1178127489984035e-02" rms="4.3643411993980408e-01" purity="7.1604949235916138e-01" nType="-99"/>
        </Node>
      </Node>
    </BinaryTree>
    <BinaryTree type="DecisionTree" boostWeight="1.0000000000000000e+00" itree="42">
      <Node pos="s" depth="0" NCoef="0" IVar="4" Cut="1.3918601274490356e+00" cType="1" res="-7.2272126562893391e-03" rms="4.3122130632400513e-01" purity="4.9309882521629333e-01" nType="0">
        <Node pos="l" depth="1" NCoef="0" IVar="3" Cut="4.2527535557746887e-01" cType="1" res="-1.3470986858010292e-02" rms="4.3271878361701965e-01" purity="4.7550192475318909e-01" nType="0">
          <Node pos="l" depth="2" NCoef="0" IVar="-1" Cut="0.0000000000000000e+00" cType="1" res="-7.2622075676918030e-03" rms="4.2553564906120300e-01" purity="3.8256862759590149e-01" nType="-99"/>
          <Node pos="r" depth="2" NCoef="0" IVar="-1" Cut="0.0000000000000000e+00" cType="1" res="4.8792250454425812e-03" rms="4.4689610600471497e-01" purity="6.8857622146606445e-01" nType="-99"/>
        </Node>
        <Node pos="r" depth="1" NCoef="0" IVar="-1" Cut="0.0000000000000000e+00" cType="1" res="2.5208616629242897e-02" rms="3.9298316836357117e-01" purity="7.7609640359878540e-01" nType="-99"/>
      </Node>
    </BinaryTree>
    <BinaryTree type="DecisionTree" boostWeight="1.0000000000000000e+00" itree="43">
      <Node pos="s" depth="0" NCoef="0" IVar="5" Cut="2.3780004121363163e-03" cType="1" res="-7.5281606987118721e-03" rms="4.3126112222671509e-01" purity="4.9222564697265625e-01" nType="0">
        <Node pos="l" depth="1" NCoef="0" IVar="4" Cut="8.4758138656616211e-01" cType="1" res="4.8804547637701035e-02" rms="4.2769166827201843e-01" purity="5.5239611864089966e-01" nType="0">
          <Node pos="l" depth="2" NCoef="0" IVar="-1" Cut="0.0000000000000000e+00" cType="1" res="5.4551139473915100e-03" rms="4.4270026683807373e-01" purity="4.6388450264930725e-01" nType="-99"/>
          <Node pos="r" depth="2" NCoef="0" IVar="-1" Cut="0.0000000000000000e+00" cType="1" res="3.3960908651351929e-02" rms="3.6854466795921326e-01" purity="8.1491017341613770e-01" nType="-99"/>
        </Node>
        <Node pos="r" depth="1" NCoef="0" IVar="1" Cut="4.0639555454254150e-01" cType="1" res="-2.4033177644014359e-02" rms="4.3090865015983582e-01" purity="4.7459620237350464e-01" nType="0">
          <Node pos="l" depth="2" NCoef="0" IVar="-1" Cut="0.0000000000000000e+00" cType="1" res="-9.5456587150692940e-03" rms="4.2737433314323425e-01" purity="4.3291705846786499e-01" nType="-99"/>
          <Node pos="r" depth="2" NCoef="0" IVar="-1" Cut="0.0000000000000000e+00" cType="1" res="1.3730427250266075e-02" rms="4.4254353642463684e-01" purity="7.2249639034271240e-01" nType="-99"/>
        </Node>
      </Node>
    </BinaryTree>
    <BinaryTree type="DecisionTree" boostWeight="1.0000000000000000e+00" itree="44">
      <Node pos="s" depth="0" NCoef="0" IVar="4" Cut="1.1217184066772461e+00" cType="1" res="7.2486307471990585e-03" rms="4.3141135573387146e-01" purity="5.1240462064743042e-01" nType="0">
        <Node pos="l" depth="1" NCoef="0" IVar="4" Cut="8.2577764987945557e-02" cType="1" res="-1.2524385238066316e-04" rms="4.3602457642555237e-01" purity="4.8061585426330566e-01" nType="0">
          <Node pos="l" depth="2" NCoef="0" IVar="-1" Cut="0.0000000000000000e+00" cType="1" res="-2.9820106923580170e-02" rms="3.4313839673995972e-01" purity="1.8432810902595520e-01" nType="-99"/>
          <Node pos="r" depth="2" NCoef="0" IVar="-1" Cut="0.0000000000000000e+00" cType="1" res="1.4686526264995337e-03" rms="4.3994548916816711e-01" purity="4.9748623371124268e-01" nType="-99"/>
        </Node>
        <Node pos="r" depth="1" NCoef="0" IVar="0" Cut="2.1079997718334198e-01" cType="1" res="6.9981686770915985e-02" rms="3.8428321480751038e-01" purity="7.8284710645675659e-01" nType="0">
          <Node pos="l" depth="2" NCoef="0" IVar="-1" Cut="0.0000000000000000e+00" cType="1" res="2.8687519952654839e-02" rms="4.0080192685127258e-01" purity="7.2634798288345337e-01" nType="-99"/>
          <Node pos="r" depth="2" NCoef="0" IVar="-1" Cut="0.0000000000000000e+00" cType="1" res="1.0620053857564926e-02" rms="3.6665526032447815e-01" purity="8.2759553194046021e-01" nType="-99"/>
        </Node>
      </Node>
    </BinaryTree>
    <BinaryTree type="DecisionTree" boostWeight="1.0000000000000000e+00" itree="45">
      <Node pos="s" depth="0" NCoef="0" IVar="0" Cut="9.1913443803787231e-01" cType="1" res="4.0803225710988045e-03" rms="4.3112125992774963e-01" purity="5.1017326116561890e-01" nType="0">
        <Node pos="l" depth="1" NCoef="0" IVar="6" Cut="4.0476188659667969e+00" cType="1" res="1.2960441410541534e-02" rms="4.2938870191574097e-01" purity="5.0282770395278931e-01" nType="0">
          <Node pos="l" depth="2" NCoef="0" IVar="-1" Cut="0.0000000000000000e+00" cType="1" res="-2.7344645932316780e-02" rms="3.4385913610458374e-01" purity="2.6255285739898682e-01" nType="-99"/>
          <Node pos="r" depth="2" NCoef="0" IVar="-1" Cut="0.0000000000000000e+00" cType="1" res="4.4603031128644943e-03" rms="4.3207758665084839e-01" purity="5.1321035623550415e-01" nType="-99"/>
        </Node>
        <Node pos="r" depth="1" NCoef="0" IVar="1" Cut="6.7470359802246094e-01" cType="1" res="-8.8469803333282471e-02" rms="4.3819674849510193e-01" purity="5.8672904968261719e-01" nType="0">
          <Node pos="l" depth="2" NCoef="0" IVar="-1" Cut="0.0000000000000000e+00" cType="1" res="-4.6696051955223083e-02" rms="4.3307462334632874e-01" purity="4.0975800156593323e-01" nType="-99"/>
          <Node pos="r" depth="2" NCoef="0" IVar="-1" Cut="0.0000000000000000e+00" cType="1" res="-5.1098028197884560e-03" rms="4.2743787169456482e-01" purity="7.0012003183364868e-01" nType="-99"/>
        </Node>
      </Node>
    </BinaryTree>
    <BinaryTree type="DecisionTree" boostWeight="1.0000000000000000e+00" itree="46">
      <Node pos="s" depth="0" NCoef="0" IVar="3" Cut="2.2639128565788269e-01" cType="1" res="-5.6700268760323524e-04" rms="4.2277333140373230e-01" purity="5.0971454381942749e-01" nType="0">
        <Node pos="l" depth="1" NCoef="0" IVar="3" Cut="7.6810851693153381e-02" cType="1" res="-2.7038281783461571e-02" rms="4.0126365423202515e-01" purity="2.8477159142494202e-01" nType="0">
          <Node pos="l" depth="2" NCoef="0" IVar="-1" Cut="0.0000000000000000e+00" cType="1" res="-3.5812430083751678e-02" rms="2.9761493206024170e-01" purity="9.8708376288414001e-02" nType="-99"/>
          <Node pos="r" depth="2" NCoef="0" IVar="-1" Cut="0.0000000000000000e+00" cType="1" res="6.1717763310298324e-04" rms="4.2871722579002380e-01" purity="3.5174441337585449e-01" nType="-99"/>
        </Node>
        <Node pos="r" depth="1" NCoef="0" IVar="6" Cut="2.7000000000000000e+01" cType="1" res="2.1050989627838135e-02" rms="4.3837517499923706e-01" purity="6.9341617822647095e-01" nType="0">
          <Node pos="l" depth="2" NCoef="0" IVar="-1" Cut="0.0000000000000000e+00" cType="1" res="2.5566888507455587e-03" rms="4.4112783670425415e-01" purity="6.8289929628372192e-01" nType="-99"/>
          <Node pos="r" depth="2" NCoef="0" IVar="-1" Cut="0.0000000000000000e+00" cType="1" res="1.5210079960525036e-02" rms="4.2477038502693176e-01" purity="7.3503029346466064e-01" nType="-99"/>
        </Node>
      </Node>
    </BinaryTree>
    <BinaryTree type="DecisionTree" boostWeight="1.0000000000000000e+00" itree="47">
      <Node pos="s" depth="0" NCoef="0" IVar="0" Cut="2.3053590953350067e-01" cType="1" res="5.5329976603388786e-03" rms="4.3084222078323364e-01" purity="5.0991654396057129e-01" nType="0">
        <Node pos="l" depth="1" NCoef="0" IVar="2" Cut="1.9810822606086731e-01" cType="1" res="2.1688537672162056e-02" rms="4.1059502959251404e-01" purity="4.2961940169334412e-01" nType="0">
          <Node pos="l" depth="2" NCoef="0" IVar="-1" Cut="0.0000000000000000e+00" cType="1" res="-7.3200426995754242e-03" rms="3.7491041421890259e-01" purity="2.0177459716796875e-01" nType="-99"/>
          <Node pos="r" depth="2" NCoef="0" IVar="-1" Cut="0.0000000000000000e+00" cType="1" res="1.4421066269278526e-02" rms="4.3492534756660461e-01" purity="6.2335073947906494e-01" nType="-99"/>
        </Node>
        <Node pos="r" depth="1" NCoef="0" IVar="6" Cut="1.6190475463867188e+01" cType="1" res="-1.6310330480337143e-02" rms="4.5588347315788269e-01" purity="6.1848348379135132e-01" nType="0">
          <Node pos="l" depth="2" NCoef="0" IVar="-1" Cut="0.0000000000000000e+00" cType="1" res="6.5740486606955528e-03" rms="4.5035701990127563e-01" purity="6.4960747957229614e-01" nType="-99"/>
          <Node pos="r" depth="2" NCoef="0" IVar="-1" Cut="0.0000000000000000e+00" cType="1" res="-1.8996821716427803e-02" rms="4.5638343691825867e-01" purity="5.7530528306961060e-01" nType="-99"/>
        </Node>
      </Node>
    </BinaryTree>
    <BinaryTree type="DecisionTree" boostWeight="1.0000000000000000e+00" itree="48">
      <Node pos="s" depth="0" NCoef="0" IVar="6" Cut="4.4285712242126465e+00" cType="1" res="-1.4480064855888486e-03" rms="4.3416330218315125e-01" purity="4.9733060598373413e-01" nType="0">
        <Node pos="l" depth="1" NCoef="0" IVar="-1" Cut="0.0000000000000000e+00" cType="1" res="-3.6784250289201736e-02" rms="3.4540668129920959e-01" purity="2.2436034679412842e-01" nType="-99"/>
        <Node pos="r" depth="1" NCoef="0" IVar="0" Cut="4.4974827766418457e-01" cType="1" res="3.4962564241141081e-03" rms="4.3652305006980896e-01" purity="5.0800001621246338e-01" nType="0">
          <Node pos="l" depth="2" NCoef="0" IVar="-1" Cut="0.0000000000000000e+00" cType="1" res="2.9030779842287302e-03" rms="4.2951115965843201e-01" purity="4.8545387387275696e-01" nType="-99"/>
          <Node pos="r" depth="2" NCoef="0" IVar="-1" Cut="0.0000000000000000e+00" cType="1" res="-7.1881157346069813e-03" rms="4.6401211619377136e-01" purity="6.0512948036193848e-01" nType="-99"/>
        </Node>
      </Node>
    </BinaryTree>
    <BinaryTree type="DecisionTree" boostWeight="1.0000000000000000e+00" itree="49">
      <Node pos="s" depth="0" NCoef="0" IVar="3" Cut="1.7955304384231567e+00" cType="1" res="-8.1563164712861180e-04" rms="4.3667301535606384e-01" purity="4.9592036008834839e-01" nType="0">
        <Node pos="l" depth="1" NCoef="0" IVar="0" Cut="4.4626587629318237e-01" cType="1" res="-5.1700151525437832e-03" rms="4.3757033348083496e-01" purity="4.8099106550216675e-01" nType="0">
          <Node pos="l" depth="2" NCoef="0" IVar="-1" Cut="0.0000000000000000e+00" cType="1" res="2.3911399766802788e-03" rms="4.3001964688301086e-01" purity="4.6694129705429077e-01" nType="-99"/>
          <Node pos="r" depth="2" NCoef="0" IVar="-1" Cut="0.0000000000000000e+00" cType="1" res="-1.8579589203000069e-02" rms="4.6703583002090454e-01" purity="5.5178219079971313e-01" nType="-99"/>
        </Node>
        <Node pos="r" depth="1" NCoef="0" IVar="-1" Cut="0.0000000000000000e+00" cType="1" res="2.0339580252766609e-02" rms="4.1086483001708984e-01" purity="7.7725392580032349e-01" nType="-99"/>
      </Node>
    </BinaryTree>
    <BinaryTree type="DecisionTree" boostWeight="1.0000000000000000e+00" itree="50">
      <Node pos="s" depth="0" NCoef="0" IVar="1" Cut="3.6004444956779480e-01" cType="1" res="2.7518151910044253e-04" rms="4.2820239067077637e-01" purity="5.0081819295883179e-01" nType="0">
        <Node pos="l" depth="1" NCoef="0" IVar="0" Cut="4.4626587629318237e-01" cType="1" res="-1.1001825332641602e-02" rms="4.2582872509956360e-01" purity="4.5603188872337341e-01" nType="0">
          <Node pos="l" depth="2" NCoef="0" IVar="-1" Cut="0.0000000000000000e+00" cType="1" res="-6.3192466041073203e-04" rms="4.1911900043487549e-01" purity="4.5714113116264343e-01" nType="-99"/>
          <Node pos="r" depth="2" NCoef="0" IVar="-1" Cut="0.0000000000000000e+00" cType="1" res="-2.3254020139575005e-02" rms="4.8207724094390869e-01" purity="4.4427573680877686e-01" nType="-99"/>
        </Node>
        <Node pos="r" depth="1" NCoef="0" IVar="3" Cut="7.7840214967727661e-01" cType="1" res="5.7722829282283783e-02" rms="4.3558710813522339e-01" purity="7.2896969318389893e-01" nType="0">
          <Node pos="l" depth="2" NCoef="0" IVar="-1" Cut="0.0000000000000000e+00" cType="1" res="-4.1954284533858299e-03" rms="4.8248222470283508e-01" purity="6.2395322322845459e-01" nType="-99"/>
          <Node pos="r" depth="2" NCoef="0" IVar="-1" Cut="0.0000000000000000e+00" cType="1" res="2.0458554849028587e-02" rms="4.1460689902305603e-01" purity="7.6579529047012329e-01" nType="-99"/>
        </Node>
      </Node>
    </BinaryTree>
    <BinaryTree type="DecisionTree" boostWeight="1.0000000000000000e+00" itree="51">
      <Node pos="s" depth="0" NCoef="0" IVar="0" Cut="1.8372658491134644e+00" cType="1" res="1.2755720876157284e-02" rms="4.3194493651390076e-01" purity="5.1115518808364868e-01" nType="0">
        <Node pos="l" depth="1" NCoef="0" IVar="2" Cut="2.2970999777317047e-01" cType="1" res="1.5996849164366722e-02" rms="4.3095931410789490e-01" purity="5.1055276393890381e-01" nType="0">
          <Node pos="l" depth="2" NCoef="0" IVar="-1" Cut="0.0000000000000000e+00" cType="1" res="-4.6810191124677658e-03" rms="3.8349375128746033e-01" purity="2.2398561239242554e-01" nType="-99"/>
          <Node pos="r" depth="2" NCoef="0" IVar="-1" Cut="0.0000000000000000e+00" cType="1" res="7.4271145276725292e-03" rms="4.5119932293891907e-01" purity="6.4819628000259399e-01" nType="-99"/>
        </Node>
        <Node pos="r" depth="1" NCoef="0" IVar="-1" Cut="0.0000000000000000e+00" cType="1" res="-2.4700611829757690e-02" rms="4.5069265365600586e-01" purity="5.3233563899993896e-01" nType="-99"/>
      </Node>
    </BinaryTree>
    <BinaryTree type="DecisionTree" boostWeight="1.0000000000000000e+00" itree="52">
      <Node pos="s" depth="0" NCoef="0" IVar="4" Cut="2.8631526231765747e-01" cType="1" res="-8.3221821114420891e-03" rms="4.3003231287002563e-01" purity="4.9453976750373840e-01" nType="0">
        <Node pos="l" depth="1" NCoef="0" IVar="4" Cut="5.4728161543607712e-02" cType="1" res="-3.9501246064901352e-02" rms="4.1157194972038269e-01" purity="3.2913729548454285e-01" nType="0">
          <Node pos="l" depth="2" NCoef="0" IVar="-1" Cut="0.0000000000000000e+00" cType="1" res="-7.5134702026844025e-02" rms="1.4956705272197723e-01" purity="0.0000000000000000e+00" nType="-99"/>
          <Node pos="r" depth="2" NCoef="0" IVar="-1" Cut="0.0000000000000000e+00" cType="1" res="-5.4613570682704449e-03" rms="4.2231485247612000e-01" purity="3.5794192552566528e-01" nType="-99"/>
        </Node>
        <Node pos="r" depth="1" NCoef="0" IVar="0" Cut="6.8792897462844849e-01" cType="1" res="6.5014827996492386e-03" rms="4.3775838613510132e-01" purity="5.7317811250686646e-01" nType="0">
          <Node pos="l" depth="2" NCoef="0" IVar="-1" Cut="0.0000000000000000e+00" cType="1" res="3.5453760065138340e-03" rms="4.3705859780311584e-01" purity="5.5875831842422485e-01" nType="-99"/>
          <Node pos="r" depth="2" NCoef="0" IVar="-1" Cut="0.0000000000000000e+00" cType="1" res="-1.0623766109347343e-02" rms="4.3925660848617554e-01" purity="6.6618776321411133e-01" nType="-99"/>
        </Node>
      </Node>
    </BinaryTree>
    <BinaryTree type="DecisionTree" boostWeight="1.0000000000000000e+00" itree="53">
      <Node pos="s" depth="0" NCoef="0" IVar="0" Cut="2.3108851909637451e-01" cType="1" res="-6.1044194735586643e-03" rms="4.3425744771957397e-01" purity="4.8737344145774841e-01" nType="0">
        <Node pos="l" depth="1" NCoef="0" IVar="6" Cut="3.2000000000000000e+01" cType="1" res="1.2242413125932217e-02" rms="4.1922628879547119e-01" purity="4.1145199537277222e-01" nType="0">
          <Node pos="l" depth="2" NCoef="0" IVar="-1" Cut="0.0000000000000000e+00" cType="1" res="5.4945601150393486e-03" rms="4.2158770561218262e-01" purity="4.2054590582847595e-01" nType="-99"/>
          <Node pos="r" depth="2" NCoef="0" IVar="-1" Cut="0.0000000000000000e+00" cType="1" res="-1.4127071015536785e-02" rms="3.9369508624076843e-01" purity="3.3846524357795715e-01" nType="-99"/>
        </Node>
        <Node pos="r" depth="1" NCoef="0" IVar="3" Cut="1.4012565612792969e+00" cType="1" res="-3.2671552151441574e-02" rms="4.5383155345916748e-01" purity="5.9731149673461914e-01" nType="0">
          <Node pos="l" depth="2" NCoef="0" IVar="-1" Cut="0.0000000000000000e+00" cType="1" res="-1.1294373311102390e-02" rms="4.5693764090538025e-01" purity="5.7069814205169678e-01" nType="-99"/>
          <Node pos="r" depth="2" NCoef="0" IVar="-1" Cut="0.0000000000000000e+00" cType="1" res="1.2069242075085640e-02" rms="4.2773565649986267e-01" purity="7.4034065008163452e-01" nType="-99"/>
        </Node>
      </Node>
    </BinaryTree>
    <BinaryTree type="DecisionTree" boostWeight="1.0000000000000000e+00" itree="54">
      <Node pos="s" depth="0" NCoef="0" IVar="5" Cut="3.3332664519548416e-02" cType="1" res="1.4858707785606384e-02" rms="4.3123713135719299e-01" purity="5.1621741056442261e-01" nType="0">
        <Node pos="l" depth="1" NCoef="0" IVar="5" Cut="3.1746721360832453e-03" cType="1" res="4.7022528015077114e-03" rms="4.2669236660003662e-01" purity="4.9257948994636536e-01" nType="0">
          <Node pos="l" depth="2" NCoef="0" IVar="-1" Cut="0.0000000000000000e+00" cType="1" res="1.1335392482578754e-02" rms="4.3455511331558228e-01" purity="5.2955502271652222e-01" nType="-99"/>
          <Node pos="r" depth="2" NCoef="0" IVar="-1" Cut="0.0000000000000000e+00" cType="1" res="-3.7233764305710793e-03" rms="4.2144981026649475e-01" purity="4.7440728545188904e-01" nType="-99"/>
        </Node>
        <Node pos="r" depth="1" NCoef="0" IVar="3" Cut="2.3528422415256500e-01" cType="1" res="6.5536074340343475e-02" rms="4.4981956481933594e-01" purity="6.3416278362274170e-01" nType="0">
          <Node pos="l" depth="2" NCoef="0" IVar="-1" Cut="0.0000000000000000e+00" cType="1" res="3.1322967261075974e-02" rms="4.8132744431495667e-01" purity="4.6333485841751099e-01" nType="-99"/>
          <Node pos="r" depth="2" NCoef="0" IVar="-1" Cut="0.0000000000000000e+00" cType="1" res="8.5900649428367615e-03" rms="4.2940235137939453e-01" purity="7.2229206562042236e-01" nType="-99"/>
        </Node>
      </Node>
    </BinaryTree>
    <BinaryTree type="DecisionTree" boostWeight="1.0000000000000000e+00" itree="55">
      <Node pos="s" depth="0" NCoef="0" IVar="0" Cut="4.6050864458084106e-01" cType="1" res="-1.3096386566758156e-02" rms="4.2808538675308228e-01" purity="4.8916855454444885e-01" nType="0">
        <Node pos="l" depth="1" NCoef="0" IVar="2" Cut="4.0276828408241272e-01" cType="1" res="-3.1808938365429640e-03" rms="4.1889744997024536e-01" purity="4.7293347120285034e-01" nType="0">
          <Node pos="l" depth="2" NCoef="0" IVar="-1" Cut="0.0000000000000000e+00" cType="1" res="-8.2234991714358330e-03" rms="4.0892738103866577e-01" purity="3.6432814598083496e-01" nType="-99"/>
          <Node pos="r" depth="2" NCoef="0" IVar="-1" Cut="0.0000000000000000e+00" cType="1" res="1.3562426902353764e-02" rms="4.3377545475959778e-01" purity="7.0762193202972412e-01" nType="-99"/>
        </Node>
        <Node pos="r" depth="1" NCoef="0" IVar="2" Cut="9.0014487504959106e-01" cType="1" res="-5.9143681079149246e-02" rms="4.6563899517059326e-01" purity="5.6456381082534790e-01" nType="0">
          <Node pos="l" depth="2" NCoef="0" IVar="-1" Cut="0.0000000000000000e+00" cType="1" res="-4.6104121953248978e-02" rms="4.4041115045547485e-01" purity="4.1409736871719360e-01" nType="-99"/>
          <Node pos="r" depth="2" NCoef="0" IVar="-1" Cut="0.0000000000000000e+00" cType="1" res="-1.7261785687878728e-03" rms="4.6436825394630432e-01" purity="6.2144696712493896e-01" nType="-99"/>
        </Node>
      </Node>
    </BinaryTree>
    <BinaryTree type="DecisionTree" boostWeight="1.0000000000000000e+00" itree="56">
      <Node pos="s" depth="0" NCoef="0" IVar="1" Cut="2.0319867134094238e-01" cType="1" res="1.2078323401510715e-02" rms="4.2628058791160583e-01" purity="5.1672410964965820e-01" nType="0">
        <Node pos="l" depth="1" NCoef="0" IVar="5" Cut="2.3789138067513704e-03" cType="1" res="-1.8399853433948010e-04" rms="4.2058923840522766e-01" purity="4.4241946935653687e-01" nType="0">
          <Node pos="l" depth="2" NCoef="0" IVar="-1" Cut="0.0000000000000000e+00" cType="1" res="1.3081051409244537e-02" rms="4.3425354361534119e-01" purity="4.9172702431678772e-01" nType="-99"/>
          <Node pos="r" depth="2" NCoef="0" IVar="-1" Cut="0.0000000000000000e+00" cType="1" res="-4.2136567644774914e-03" rms="4.1502675414085388e-01" purity="4.2723542451858521e-01" nType="-99"/>
        </Node>
        <Node pos="r" depth="1" NCoef="0" IVar="0" Cut="8.6337220668792725e-01" cType="1" res="4.2831949889659882e-02" rms="4.3872573971748352e-01" purity="7.0307844877243042e-01" nType="0">
          <Node pos="l" depth="2" NCoef="0" IVar="-1" Cut="0.0000000000000000e+00" cType="1" res="1.4864247292280197e-02" rms="4.3966135382652283e-01" purity="7.1120142936706543e-01" nType="-99"/>
          <Node pos="r" depth="2" NCoef="0" IVar="-1" Cut="0.0000000000000000e+00" cType="1" res="-3.3585061319172382e-03" rms="4.3120080232620239e-01" purity="6.8089658021926880e-01" nType="-99"/>
        </Node>
      </Node>
    </BinaryTree>
    <BinaryTree type="DecisionTree" boostWeight="1.0000000000000000e+00" itree="57">
      <Node pos="s" depth="0" NCoef="0" IVar="0" Cut="1.3472386598587036e+00" cType="1" res="-6.9798657204955816e-04" rms="4.2747738957405090e-01" purity="5.0490325689315796e-01" nType="0">
        <Node pos="l" depth="1" NCoef="0" IVar="2" Cut="4.5166310667991638e-01" cType="1" res="4.5338138006627560e-03" rms="4.2617437243461609e-01" purity="5.0447410345077515e-01" nType="0">
          <Node pos="l" depth="2" NCoef="0" IVar="-1" Cut="0.0000000000000000e+00" cType="1" res="-2.8753660153597593e-03" rms="4.1694301366806030e-01" purity="3.9741167426109314e-01" nType="-99"/>
          <Node pos="r" depth="2" NCoef="0" IVar="-1" Cut="0.0000000000000000e+00" cType="1" res="7.4268146418035030e-03" rms="4.4003134965896606e-01" purity="6.8442565202713013e-01" nType="-99"/>
        </Node>
        <Node pos="r" depth="1" NCoef="0" IVar="-1" Cut="0.0000000000000000e+00" cType="1" res="-2.9646994546055794e-02" rms="4.3962100148200989e-01" purity="5.1462841033935547e-01" nType="-99"/>
      </Node>
    </BinaryTree>
    <BinaryTree type="DecisionTree" boostWeight="1.0000000000000000e+00" itree="58">
      <Node pos="s" depth="0" NCoef="0" IVar="4" Cut="4.3808487057685852e-01" cType="1" res="-8.0596907064318657e-03" rms="4.2885336279869080e-01" purity="4.9053493142127991e-01" nType="0">
        <Node pos="l" depth="1" NCoef="0" IVar="5" Cut="3.0952319502830505e-02" cType="1" res="-2.9874639585614204e-02" rms="4.2511439323425293e-01" purity="3.5786488652229309e-01" nType="0">
          <Node pos="l" depth="2" NCoef="0" IVar="-1" Cut="0.0000000000000000e+00" cType="1" res="-1.3200715184211731e-02" rms="4.0913060307502747e-01" purity="3.1695261597633362e-01" nType="-99"/>
          <Node pos="r" depth="2" NCoef="0" IVar="-1" Cut="0.0000000000000000e+00" cType="1" res="1.1810467578470707e-02" rms="4.7309127449989319e-01" purity="5.1489090919494629e-01" nType="-99"/>
        </Node>
        <Node pos="r" depth="1" NCoef="0" IVar="6" Cut="1.1571428298950195e+01" cType="1" res="1.5368637628853321e-02" rms="4.3160670995712280e-01" purity="6.3301688432693481e-01" nType="0">
          <Node pos="l" depth="2" NCoef="0" IVar="-1" Cut="0.0000000000000000e+00" cType="1" res="1.2974101118743420e-02" rms="4.1134804487228394e-01" purity="6.6136926412582397e-01" nType="-99"/>
          <Node pos="r" depth="2" NCoef="0" IVar="-1" Cut="0.0000000000000000e+00" cType="1" res="-6.2885996885597706e-04" rms="4.4070848822593689e-01" purity="6.1829155683517456e-01" nType="-99"/>
        </Node>
      </Node>
    </BinaryTree>
    <BinaryTree type="DecisionTree" boostWeight="1.0000000000000000e+00" itree="59">
      <Node pos="s" depth="0" NCoef="0" IVar="2" Cut="4.7903034090995789e-01" cType="1" res="-9.2260343953967094e-03" rms="4.2812412977218628e-01" purity="4.8777821660041809e-01" nType="0">
        <Node pos="l" depth="1" NCoef="0" IVar="0" Cut="3.1484454870223999e-01" cType="1" res="-2.9208216816186905e-02" rms="4.1793197393417358e-01" purity="3.7496423721313477e-01" nType="0">
          <Node pos="l" depth="2" NCoef="0" IVar="-1" Cut="0.0000000000000000e+00" cType="1" res="-4.8661567270755768e-03" rms="4.1339290142059326e-01" purity="3.7479758262634277e-01" nType="-99"/>
          <Node pos="r" depth="2" NCoef="0" IVar="-1" Cut="0.0000000000000000e+00" cType="1" res="-4.8579279333353043e-02" rms="4.4701164960861206e-01" purity="3.7762951850891113e-01" nType="-99"/>
        </Node>
        <Node pos="r" depth="1" NCoef="0" IVar="5" Cut="1.1902341619133949e-02" cType="1" res="2.2969583049416542e-02" rms="4.4215846061706543e-01" purity="6.6954594850540161e-01" nType="0">
          <Node pos="l" depth="2" NCoef="0" IVar="-1" Cut="0.0000000000000000e+00" cType="1" res="-3.0900200363248587e-03" rms="4.4477736949920654e-01" purity="6.2917035818099976e-01" nType="-99"/>
          <Node pos="r" depth="2" NCoef="0" IVar="-1" Cut="0.0000000000000000e+00" cType="1" res="1.2180740013718605e-02" rms="4.3822056055068970e-01" purity="7.0039135217666626e-01" nType="-99"/>
        </Node>
      </Node>
    </BinaryTree>
    <BinaryTree type="DecisionTree" boostWeight="1.0000000000000000e+00" itree="60">
      <Node pos="s" depth="0" NCoef="0" IVar="0" Cut="4.5906201004981995e-01" cType="1" res="-1.0538504458963871e-02" rms="4.3255218863487244e-01" purity="4.8429301381111145e-01" nType="0">
        <Node pos="l" depth="1" NCoef="0" IVar="5" Cut="4.7624236904084682e-03" cType="1" res="2.7076208498328924e-03" rms="4.2475983500480652e-01" purity="4.7084590792655945e-01" nType="0">
          <Node pos="l" depth="2" NCoef="0" IVar="-1" Cut="0.0000000000000000e+00" cType="1" res="9.9879074841737747e-03" rms="4.3010842800140381e-01" purity="4.7676602005958557e-01" nType="-99"/>
          <Node pos="r" depth="2" NCoef="0" IVar="-1" Cut="0.0000000000000000e+00" cType="1" res="-4.7731082886457443e-03" rms="4.2010906338691711e-01" purity="4.6727529168128967e-01" nType="-99"/>
        </Node>
        <Node pos="r" depth="1" NCoef="0" IVar="3" Cut="8.5868275165557861e-01" cType="1" res="-7.0142246782779694e-02" rms="4.6132361888885498e-01" purity="5.4480105638504028e-01" nType="0">
          <Node pos="l" depth="2" NCoef="0" IVar="-1" Cut="0.0000000000000000e+00" cType="1" res="-3.2867606729269028e-02" rms="4.6905252337455750e-01" purity="3.9640057086944580e-01" nType="-99"/>
          <Node pos="r" depth="2" NCoef="0" IVar="-1" Cut="0.0000000000000000e+00" cType="1" res="-4.8410077579319477e-04" rms="4.4325754046440125e-01" purity="6.8376153707504272e-01" nType="-99"/>
        </Node>
      </Node>
    </BinaryTree>
    <BinaryTree type="DecisionTree" boostWeight="1.0000000000000000e+00" itree="61">
      <Node pos="s" depth="0" NCoef="0" IVar="1" Cut="3.6198571324348450e-01" cType="1" res="4.8007029108703136e-03" rms="4.3041235208511353e-01" purity="4.9769666790962219e-01" nType="0">
        <Node pos="l" depth="1" NCoef="0" IVar="0" Cut="4.4974827766418457e-01" cType="1" res="-3.4862034954130650e-03" rms="4.2887488007545471e-01" purity="4.6033656597137451e-01" nType="0">
          <Node pos="l" depth="2" NCoef="0" IVar="-1" Cut="0.0000000000000000e+00" cType="1" res="1.1009423760697246e-03" rms="4.2521399259567261e-01" purity="4.6160891652107239e-01" nType="-99"/>
          <Node pos="r" depth="2" NCoef="0" IVar="-1" Cut="0.0000000000000000e+00" cType="1" res="-2.0113913342356682e-02" rms="4.5875793695449829e-01" purity="4.4640651345252991e-01" nType="-99"/>
        </Node>
        <Node pos="r" depth="1" NCoef="0" IVar="0" Cut="7.8854387998580933e-01" cType="1" res="5.3963292390108109e-02" rms="4.3619731068611145e-01" purity="7.1933805942535400e-01" nType="0">
          <Node pos="l" depth="2" NCoef="0" IVar="-1" Cut="0.0000000000000000e+00" cType="1" res="2.5832738727331161e-02" rms="4.0491124987602234e-01" purity="7.7098482847213745e-01" nType="-99"/>
          <Node pos="r" depth="2" NCoef="0" IVar="-1" Cut="0.0000000000000000e+00" cType="1" res="9.7837264183908701e-04" rms="4.5790842175483704e-01" purity="6.7113035917282104e-01" nType="-99"/>
        </Node>
      </Node>
    </BinaryTree>
    <BinaryTree type="DecisionTree" boostWeight="1.0000000000000000e+00" itree="62">
      <Node pos="s" depth="0" NCoef="0" IVar="5" Cut="1.4285517856478691e-02" cType="1" res="-2.7444039005786180e-03" rms="4.2892065644264221e-01" purity="4.9077078700065613e-01" nType="0">
        <Node pos="l" depth="1" NCoef="0" IVar="5" Cut="2.7210831176489592e-03" cType="1" res="-1.8920751288533211e-02" rms="4.1966420412063599e-01" purity="4.3388393521308899e-01" nType="0">
          <Node pos="l" depth="2" NCoef="0" IVar="-1" Cut="0.0000000000000000e+00" cType="1" res="8.1964535638689995e-03" rms="4.3323600292205811e-01" purity="5.2155137062072754e-01" nType="-99"/>
          <Node pos="r" depth="2" NCoef="0" IVar="-1" Cut="0.0000000000000000e+00" cType="1" res="-1.4341009780764580e-02" rms="4.0625011920928955e-01" purity="3.7294512987136841e-01" nType="-99"/>
        </Node>
        <Node pos="r" depth="1" NCoef="0" IVar="5" Cut="2.4489866569638252e-02" cType="1" res="2.0664824172854424e-02" rms="4.4092324376106262e-01" purity="5.7309323549270630e-01" nType="0">
          <Node pos="l" depth="2" NCoef="0" IVar="-1" Cut="0.0000000000000000e+00" cType="1" res="1.6354294493794441e-02" rms="4.2597919702529907e-01" purity="5.9707432985305786e-01" nType="-99"/>
          <Node pos="r" depth="2" NCoef="0" IVar="-1" Cut="0.0000000000000000e+00" cType="1" res="-1.8858729163184762e-03" rms="4.4738420844078064e-01" purity="5.5858206748962402e-01" nType="-99"/>
        </Node>
      </Node>
    </BinaryTree>
    <BinaryTree type="DecisionTree" boostWeight="1.0000000000000000e+00" itree="63">
      <Node pos="s" depth="0" NCoef="0" IVar="6" Cut="8.0000000000000000e+00" cType="1" res="7.5494959019124508e-03" rms="4.2677381634712219e-01" purity="5.0436574220657349e-01" nType="0">
        <Node pos="l" depth="1" NCoef="0" IVar="4" Cut="6.3688129186630249e-01" cType="1" res="-3.3668369054794312e-02" rms="3.9383625984191895e-01" purity="3.8852038979530334e-01" nType="0">
          <Node pos="l" depth="2" NCoef="0" IVar="-1" Cut="0.0000000000000000e+00" cType="1" res="-1.8006382510066032e-02" rms="3.9458379149436951e-01" purity="2.6872161030769348e-01" nType="-99"/>
          <Node pos="r" depth="2" NCoef="0" IVar="-1" Cut="0.0000000000000000e+00" cType="1" res="1.1256875470280647e-02" rms="3.8147017359733582e-01" purity="6.8874770402908325e-01" nType="-99"/>
        </Node>
        <Node pos="r" depth="1" NCoef="0" IVar="6" Cut="3.3333332061767578e+01" cType="1" res="1.4095803722739220e-02" rms="4.3141162395477295e-01" purity="5.2276450395584106e-01" nType="0">
          <Node pos="l" depth="2" NCoef="0" IVar="-1" Cut="0.0000000000000000e+00" cType="1" res="5.2224830724298954e-03" rms="4.3229955434799194e-01" purity="5.3217506408691406e-01" nType="-99"/>
          <Node pos="r" depth="2" NCoef="0" IVar="-1" Cut="0.0000000000000000e+00" cType="1" res="-1.0428661480545998e-02" rms="4.1950079798698425e-01" purity="4.4024398922920227e-01" nType="-99"/>
        </Node>
      </Node>
    </BinaryTree>
    <BinaryTree type="DecisionTree" boostWeight="1.0000000000000000e+00" itree="64">
      <Node pos="s" depth="0" NCoef="0" IVar="4" Cut="8.4711140394210815e-01" cType="1" res="-6.8805250339210033e-03" rms="4.3294385075569153e-01" purity="4.8540681600570679e-01" nType="0">
        <Node pos="l" depth="1" NCoef="0" IVar="4" Cut="6.9185800850391388e-02" cType="1" res="-1.5305107459425926e-02" rms="4.3772405385971069e-01" purity="4.2734703421592712e-01" nType="0">
          <Node pos="l" depth="2" NCoef="0" IVar="-1" Cut="0.0000000000000000e+00" cType="1" res="-4.7407310456037521e-02" rms="2.6433411240577698e-01" purity="8.4148071706295013e-02" nType="-99"/>
          <Node pos="r" depth="2" NCoef="0" IVar="-1" Cut="0.0000000000000000e+00" cType="1" res="-2.2897429298609495e-03" rms="4.4326469302177429e-01" purity="4.4346725940704346e-01" nType="-99"/>
        </Node>
        <Node pos="r" depth="1" NCoef="0" IVar="0" Cut="2.2981259226799011e-01" cType="1" res="2.8495347127318382e-02" rms="4.1038304567337036e-01" purity="7.2920703887939453e-01" nType="0">
